<?xml version="1.0"?>
<opencv_storage>
<opencv_ml_ann_mlp>
  <format>3</format>
  <layer_sizes>
    19 300 300 10</layer_sizes>
  <activation_function>SIGMOID_SYM</activation_function>
  <f_param1>6.6666666666666663e-01</f_param1>
  <f_param2>1.7159000000000000e+00</f_param2>
  <min_val>-9.4999999999999996e-01</min_val>
  <max_val>9.4999999999999996e-01</max_val>
  <min_val1>-9.7999999999999998e-01</min_val1>
  <max_val1>9.7999999999999998e-01</max_val1>
  <training_params>
    <train_method>BACKPROP</train_method>
    <dw_scale>1.0000000000000000e-03</dw_scale>
    <moment_scale>0.</moment_scale>
    <term_criteria>
      <iterations>1000</iterations></term_criteria></training_params>
  <input_scale>
    4.3669283584608287e+00 -2.8721731236063457e+00
    1.0007393354780584e+01 -2.6019246006730548e+00
    8.7173541265722925e+00 -2.2047267620180242e+00
    9.1847203427947388e+00 -2.1023834312784064e+00
    8.3942486905085083e+00 -1.2214911715395340e+00
    1.7441632700817188e+01 -1.4600064437278137e+00
    3.2733812961678382e+01 -1.8886201223151624e+00
    4.2066171730673915e+01 -1.8044764224757253e+00
    5.4679694441917377e+01 -2.0481686633032870e+00
    6.2355255541830900e+01 -1.9023855561742666e+00
    7.5015769097608882e+01 -2.1380230779374321e+00
    8.0511770740647492e+01 -1.9845582162456266e+00
    7.8682811953581506e+01 -1.8528981515408112e+00
    1.0779854494740107e+02 -2.2166920486684489e+00
    9.4979396152717896e+01 -1.7533266496032789e+00
    1.2286545582951295e+02 -1.9745332967892157e+00
    1.2523145306965247e+02 -1.7783114078522553e+00
    1.6249812411101232e+02 -2.1135827605569060e+00
    1.7704276418458514e+02 -2.0206084517769738e+00</input_scale>
  <output_scale>
    5.2631578947368418e-01 4.9999999999999994e-01 5.2631578947368418e-01
    4.9999999999999994e-01 5.2631578947368418e-01 4.9999999999999994e-01
    5.2631578947368418e-01 4.9999999999999994e-01 5.2631578947368418e-01
    4.9999999999999994e-01 5.2631578947368418e-01 4.9999999999999994e-01
    5.2631578947368418e-01 4.9999999999999994e-01 5.2631578947368418e-01
    4.9999999999999994e-01 5.2631578947368418e-01 4.9999999999999994e-01
    5.2631578947368418e-01 4.9999999999999994e-01</output_scale>
  <inv_output_scale>
    1.8999999999999999e+00 -9.4999999999999996e-01
    1.8999999999999999e+00 -9.4999999999999996e-01
    1.8999999999999999e+00 -9.4999999999999996e-01
    1.8999999999999999e+00 -9.4999999999999996e-01
    1.8999999999999999e+00 -9.4999999999999996e-01
    1.8999999999999999e+00 -9.4999999999999996e-01
    1.8999999999999999e+00 -9.4999999999999996e-01
    1.8999999999999999e+00 -9.4999999999999996e-01
    1.8999999999999999e+00 -9.4999999999999996e-01
    1.8999999999999999e+00 -9.4999999999999996e-01</inv_output_scale>
  <weights>
    <_>
      -1.1799955808241229e+00 -2.1286544180431188e-02
      -2.7870185100177552e-01 -4.3707281588457943e-02
      -3.7966272781174304e-01 3.3402640154945484e-01
      2.2707685624106206e-02 3.2377436583339869e-01
      -1.2931231584949746e-01 2.0178386860530606e-01
      -6.2008378614402344e-02 1.8449835720832633e-01
      -2.6151309103659720e-01 1.7196275726163870e-01
      -2.8413470786667200e-01 -5.7011470686583424e-02
      1.1382915285559247e-01 1.2832378719497212e-01
      2.2168957000632389e-01 1.4846501039028126e-01
      1.5844624788251524e-01 -8.2779163659877100e-02
      1.4120784204029724e-02 -1.9982576380892478e-01
      -5.1697949842608837e-01 -2.1106248846937395e-01
      -1.9377021496890301e-01 -3.2216980076559937e-01
      8.8494223671404831e-02 1.5427768102599534e-01
      -3.6070988628100570e-02 1.5290123299601419e-01
      -1.2780217515841106e-02 9.1958571438588044e-02
      5.4357473320601854e-02 -1.6820366140777293e-01
      1.2205565497866254e-01 1.4621166136077249e-01
      2.6259325597268672e-02 -1.6765802376630404e-01
      1.3955331039178953e-01 -2.6502405151561764e-01
      -2.0217859466916702e-01 -1.4715340284774603e-01
      -7.8522745857510776e-02 1.3396756590200459e-01
      -2.7833848681554174e-01 1.5045205082109117e-01
      3.4351953043940392e-01 -1.7327018472120745e-01
      2.1558394612714582e-01 -1.5527108609508535e-02
      2.9553211100047294e-01 -8.0196365324343460e-02
      9.3236830704072959e-02 2.8621193824634289e-01
      4.6375991155581009e-01 7.9265057336163069e-02
      -2.7859498184980142e-01 1.0876380330427081e-01
      -4.4998001758998804e-02 -1.5772886249501486e-01
      2.1113780987162700e-01 2.0965638526222924e-01
      -5.0073447796412452e-03 -1.4170855442261093e-01
      4.5762503857538557e-02 -6.5289434273035032e-02
      5.9971964436061426e-02 -2.0887138867268475e-02
      2.7027426132564213e-02 2.9507012777073266e-01
      4.7965159353649844e-01 -1.1734383088575921e-01
      1.5712369652238095e-01 -1.2449774978844032e-01
      4.3151368978429958e-02 1.4943947536600119e-01
      1.1853929889581925e-01 -1.9831462229900565e-02
      1.0939665218264309e-01 2.1774627936522989e-01
      -1.1041123294145894e-01 -2.5127565478940922e-01
      3.3806688451800869e-02 2.6734900362538705e-01
      4.9438088996025052e-02 -1.9513483811533183e-01
      1.3389563813809849e-01 -1.1531629539798115e-01
      1.5768727258205881e-01 2.6979849273936479e-01
      3.3460860156327055e-01 1.8028958229768097e-01
      3.0700228723272627e-01 -1.4640981896251787e-01
      -1.9352751082344413e-01 2.2036479673956258e-01
      1.0387531109193607e-01 -1.7982543512079260e-01
      -1.3542181381366727e-02 -1.2028617732299075e-01
      -2.9925196716366331e-01 1.7386897281252869e-01
      -7.5498551395799607e-01 -4.6837810997031493e-02
      -2.6306852672133973e-01 -1.5557334268134912e-01
      2.4042760897712562e-01 1.7328818145665467e-01
      -3.5601608579127308e-01 4.4480650437943983e-02
      -2.5523474365040316e-01 2.6456227647995773e-01
      2.7387063707309928e-01 1.9086659670227446e-01
      -8.6948119159000442e-02 1.8758867486331934e-01
      2.3597015138129548e-01 -6.2032934032547782e-02
      1.2302417143371205e-01 1.6857048546445120e-03
      -1.9270794239025646e-01 -2.5876385999412971e-01
      -2.3706368374750844e-01 1.9136591603462660e-01
      -1.2358158815401046e-01 2.5516730601616672e-01
      -2.2832300867436434e-01 -1.7299046491854970e-03
      -3.7427717532271976e-01 2.2294441444931332e-01
      -2.2183402845326869e-01 1.1617645148644473e-01
      1.4989236944176856e-01 -6.8003905186430874e-02
      -1.7558745701992834e-01 4.0327567095736004e-02
      -2.7773125525720915e-01 2.0155163014816851e-01
      1.1117884083559973e-02 1.8358700383230939e-02
      1.5797374958683671e-01 -1.6345689206205299e-01
      -1.7770506202446323e-01 -1.8638202861429681e-01
      -9.0037338646488819e-03 1.6617079376791200e-01
      -2.6402207896388658e-01 1.0170023626429339e-01
      2.1362022574224815e-01 -1.1857684961091543e-01
      -1.3101768806626943e-01 8.1941376576638206e-02
      -6.0919522695962502e-01 -2.4795511778807505e-01
      -5.0061484346449421e-02 -9.7409114004485334e-02
      -1.5254467106678934e-01 2.3632525477839222e-01
      -6.6757881353964876e-02 -2.8386943348247423e-01
      -1.8038740919391683e-01 -1.1273318831838580e-02
      1.4030769491439263e-01 2.4011385701791885e-01
      -2.2154799812891890e-01 7.0702607298944273e-02
      1.2492569944562601e-01 -1.6214756954196707e-01
      2.6747929893645495e-01 -1.8736431908750539e-01
      1.5199409440329703e-01 2.2382803135310858e-01
      2.6954936797951351e-01 5.5894379656376064e-03
      -2.6244504509016947e-01 1.2262196009639979e-01
      2.3461311703088550e-01 7.1655592739040222e-02
      -1.2442075391454688e-01 -2.4271474430764203e-01
      -1.8432307288216174e-01 -1.0838342688434488e-01
      -1.2731009142388847e-01 -1.2622792979071143e-01
      -1.5569610605210223e-02 1.4665214522653192e-01
      1.5928344545667356e-01 1.7436532291951112e-01
      1.3598376002396981e-02 6.4172428197887321e-02
      4.7877900528690731e-02 2.2936569221126343e-01
      -1.5289648453687602e-01 -7.8764864943411103e-02
      3.3969266428350808e-01 -7.5261191272960853e-02
      1.7127607685503676e-01 -2.5920853720688425e-01
      4.3471058224143030e-02 -6.2150529494807566e-02
      -1.2612862113663592e-01 -6.2278418737680627e-02
      2.2428741102249178e-01 -2.2318254305113014e-01
      1.6216751918621941e-01 7.0845319720043251e-02
      -4.3159773529041811e-03 1.2066708727144904e-01
      4.4370513476210481e-02 -1.1051870706858749e-01
      8.2691973304659117e-01 -1.1751503495573081e+00
      -3.5314566953770048e-03 5.9431786017694666e-02
      1.2678187950600231e-01 -2.5283408435772237e-01
      -1.1053321893401842e-01 -2.5894954648015739e-01
      1.4911455322247047e-01 -1.7405952292870053e-01
      1.6189203082277320e-01 2.0419783523416657e-01
      -8.9259583466800838e-02 1.7249220446796554e-01
      1.4555538324347816e-01 -3.2560000040237352e-01
      -2.4854757959144902e-01 -2.0168790237780448e-01
      5.8803350794179821e-01 5.9859561835679961e-02
      2.7355566949770183e-01 -2.3906870977203884e-01
      1.3500857704844332e-01 -2.1900818834523050e-01
      5.7058674673565249e-02 2.1934603676105324e-01
      1.1786465151022871e-01 -5.2022825331023662e-02
      -7.3988029934680330e-02 -1.6696031127496895e+00
      1.8861526641480716e-01 2.7002991533900139e-01
      -1.5342463530419537e-01 -4.4746224933633276e-02
      -3.8108614730551785e-02 -1.4652195823198166e-01
      -1.1272032406189739e-01 -6.3668124481484553e-02
      2.0080193157790344e-01 -1.9961679842269658e-01
      2.5090300559558154e-01 -1.0368705306532092e-01
      1.7482837188064018e-01 6.3072387919198905e-02
      7.5003410217351768e-02 -2.0150487102586476e-01
      4.7899522550389084e-01 -5.0930359921874535e-01
      3.4722824904534794e-02 8.4168364447419902e-02
      -1.5490566008684875e-01 -2.4125643683853620e-01
      -1.1813657133619106e-01 -9.8948570367306102e-02
      4.8252762166456971e-02 -2.1753577287804934e-01
      -2.7868533258086625e-01 -2.4141321529258220e-01
      -6.6986861936242842e-02 3.1896036516475518e-01
      3.0928829981618139e-01 1.9955830726011295e-01
      8.4563862309727192e-02 3.8254567389445981e-01
      2.2188673122909236e-01 -1.6395685697827089e-01
      1.1991745697442271e-01 1.7875042987937825e-01
      -3.3304547279018687e-01 2.8105451573217571e-02
      -2.0343251677653151e-03 2.2837900902713923e-01
      -2.3155665787028279e-01 1.0200028513603779e-02
      -9.2092447804118613e-02 -1.3924762619567860e-01
      -1.8799764810638928e-01 -9.5235378124060688e-02
      -3.4438769328690716e-01 1.5034981823565913e-01
      1.7876182860420115e-01 1.2823483566073393e-02
      -1.5628617001144324e-01 -5.1422095392825447e-02
      1.5457996542260419e-01 3.4301111422559016e-01
      -1.5750573561993453e-01 7.2408247578928595e-02
      -4.3898627752815955e-01 -1.8734360489066137e-01
      -2.6109329894090127e-01 -2.3453364257083645e-01
      -2.7296718561355438e-01 2.6888468047888558e-01
      7.9012269007872160e-01 1.9336045339903987e-01
      8.0257095065838668e-02 8.3374693699430569e-02
      -2.5800594504111751e-01 2.7481208057560669e-01
      -1.7654749177376944e-01 5.3335543327206775e-02
      -1.7448044878550478e-01 4.4674274963365040e-01
      2.7733567949248993e-02 1.7372907191970824e-01
      9.7175141871084988e-02 1.1106030738381892e-01
      2.0910117909065890e-01 -1.5981724563897826e-01
      -2.1092571026888048e-02 4.6104770628654548e-02
      -8.8457980788085633e-01 -2.2293159089954329e-01
      -2.0453914804728862e-01 -1.7134063469877604e-02
      1.9066753945284573e-01 -1.3656570467429485e-01
      -6.7170316908120795e-02 -1.0960851604358676e-01
      1.3724811093115052e-01 9.8558841878879921e-02
      3.5443207820784917e-01 1.7851732259879998e-02
      4.1542760591548211e-02 1.5371862075075485e-01
      -5.3202735359238626e-02 -1.9228194438155474e-01
      -3.5002098051380999e-02 -2.5308069836890011e-02
      -2.2162009952749345e-01 1.5111863857398261e-02
      -6.1992718581185789e-02 1.2662522927654046e-01
      4.8363312909588660e-02 2.3649102580266410e-01
      2.5830809996821369e-01 -5.1115213752542105e-02
      1.4334903667331758e-01 -1.2405768470469990e-01
      3.2254622564818936e-01 -6.7283919696762423e-02
      1.7274781615261431e-01 1.7608837429691923e-01
      2.6629773517851890e-01 2.3381963594493449e-01
      -3.7668631749750836e-01 -1.1741640300300148e-01
      1.6987200620829637e-01 -1.6447326089082975e-01
      9.4556752073033670e-02 1.2033795089587843e-01
      -1.8502227236174210e-01 -3.0432284436729445e-01
      1.1237868399654551e-01 -1.4804667092394236e-01
      -2.6820291843801269e-01 -2.4703866543718554e-02
      1.7659743127152369e-01 1.4695063476879053e-01
      3.3617242454541996e-01 -1.8012152529522110e-01
      3.0001719947238610e-02 1.0064895971306435e-01
      7.6136467803399027e-02 7.0497166233493433e-02
      -1.1641235824111092e-01 -1.3698880810988168e-01
      1.2875980085857891e-01 -1.2312608136367569e-01
      2.4154492447916818e-02 -1.0097480946737586e-01
      1.5246157965668958e-01 1.5824497706641810e-01
      1.8140019023060802e-01 2.5557761476051159e-02
      -9.0519017628323706e-02 -1.2501697056070996e-01
      2.5166233299685564e-01 2.5870983108229539e-01
      -6.8176478276587626e-02 5.3221790975773127e-02
      1.6597372729993246e-01 -5.8182662136660873e-02
      -2.1785369650398079e-01 7.7367572732289253e-02
      6.6642383641018571e-02 -1.6303423006874776e-01
      -1.5132666824349522e-01 -2.3209065064578305e-01
      -1.9372492636159036e-01 1.7372945189933254e-02
      5.1104348084519780e-01 -3.8045342592071379e-01
      -4.2968259321644436e-01 -2.0754361268936941e-01
      -4.1772293323845709e-02 2.7602543543943209e-01
      7.9633271990711507e-01 5.0979945797583109e-02
      -1.0906454222539533e-01 -7.1774694517490259e-02
      5.6264748494769239e-03 2.7281119037182555e-01
      -8.7084290303432899e-02 2.2967343028216483e-01
      4.7979900099854849e-03 -2.2687602089008170e-02
      -1.7436211928055437e-01 -1.0553868794400588e-01
      -1.3442538985148897e-01 -4.3617145114524919e-01
      -1.5130537001820765e-01 1.7365757668135495e-01
      -2.9135593252787462e-02 2.0324472210833039e-01
      -2.4889330961466358e-01 1.7706993820918623e-01
      1.5859772420563818e-02 -6.7832322945541050e-04
      -2.1093726450518102e-01 -1.1564733647860440e-01
      4.1452335048944222e-01 -3.7881089237861321e-02
      -1.7923757392305883e-01 -1.2503634566149979e-01
      -2.7496234348795684e-01 -3.6573180489491629e-04
      -2.1976711653911163e-01 -1.4359561155452960e-01
      -7.8521888450958036e-03 -1.1975886288581690e-01
      -1.7738991439021917e-01 -2.5560470847384337e-01
      -2.9450266634095223e-01 2.8014044861918119e-01
      -2.7463107191922637e-01 9.6193193942249747e-02
      3.7512857921595040e-02 -2.2193888270343029e-01
      -5.0144142360788004e-04 -4.9813612468570176e-02
      3.4601467956047927e-01 -2.4507420680301073e-01
      -4.2317626589594051e-02 -1.1089948729280689e-01
      6.4285207064967501e-02 1.7986282538509497e-02
      -7.9815599622402200e-02 1.6502628562201882e-01
      -1.5330290713845424e-02 2.7078660944074240e-01
      2.5929489947044682e-01 3.8754872368858034e-01
      -4.1656717155573758e-02 3.3734792919955119e-02
      1.4634707512234934e-02 -1.0376620726550752e-01
      2.9376420764846378e-01 -2.7533888304152387e-01
      -4.1883309650955866e-02 2.3084748159567439e-01
      -5.6137876693033925e-02 1.7145013545356116e-01
      -2.0157687088016585e-01 3.5838309724345739e-03
      -2.8592857971838226e-01 2.0528378950833945e-01
      1.7616443715920191e-01 1.2322173505330315e-02
      -1.8330206089123335e-01 -1.7540856754294321e-01
      -2.0170213286464778e-01 1.9500814600337282e-01
      -1.9124337087988824e-01 2.0780664925493855e-01
      1.1151461223072319e-01 2.2453033523327112e-01
      -2.4563370499962212e-01 2.8673372675419156e-01
      6.0944097101901049e-03 5.3402321138761324e-02
      -7.1296890853199360e-02 1.8430026015063858e-01
      5.7822448510181967e-01 -2.1767311236577987e-02
      1.9226395171741195e-01 -2.3925820814508686e-01
      -3.9595323180538163e-02 -2.8815629924579356e-01
      1.2314293123813208e-01 -1.4048410091987362e-01
      8.6274408884345025e-02 2.8150907195381523e-03
      -9.6825613324198923e-02 1.9425918929172059e-01
      7.7773770431863329e-02 -2.4044957759603237e-02
      1.1318094134997618e-01 -1.1051163685337866e-01
      7.1933846603731741e-02 -2.0397207595016803e-01
      1.2437856098678032e-03 3.3796508474777054e-01
      2.2691011920065704e-01 -1.7971249371765247e-01
      -4.5355949019497729e-02 -1.6315318450323948e-01
      -1.6426781133872603e-01 8.6429881951530854e-02
      8.3331791472757710e-02 -1.1229713755450081e-01
      -1.9895548345053635e-01 1.2611197566226875e-01
      -3.6988795141171940e-02 -1.0082871745420904e-02
      -2.6957921459957362e-01 -3.2295631464344068e-02
      -3.6425199777606954e-01 2.6493769033324821e-01
      5.7526274013858576e-02 2.2955229483707659e-01
      2.2382009518217155e-01 1.8960600395446600e-02
      -5.1414431414516078e-02 -9.1181052006856292e-02
      -6.9529242826023435e-02 2.9235031735211693e-03
      1.3953132031399926e-01 -5.9544662510320638e-02
      -1.0159245881107094e-01 3.6079114962427439e-01
      -4.3803399610775084e-01 -2.8579750011454130e-01
      1.7936857974911660e-01 -2.8177253686370612e-01
      -2.8129294268467164e-01 -1.9474849614415798e-01
      5.8586311604654696e-02 3.3613033633512632e-02
      1.4712533425658034e-01 -2.7776111575162560e-01
      -1.6677802532454788e-01 1.0379529311138383e-01
      1.0667878238700394e-01 -2.9070433233644315e-02
      2.6307560954158210e-01 2.5560819041840804e-01
      5.1479200788676883e-02 1.0156292451223675e-01
      -2.8079999160872421e-01 1.5403998231103147e-01
      -1.1819610071215771e-01 -1.7875231090581076e-02
      -2.8839450516647386e-01 5.9172446817835220e-02
      -2.0558421735156573e-01 -2.8593110994311866e-01
      -1.9531184098650567e-01 2.9323060775002108e-01
      2.7239794200711237e-01 4.4260169727455716e-02
      -4.6230691896392756e-02 7.3236108249343082e-02
      2.0948740806063734e-02 -1.3580065084252554e-01
      7.3311268547259195e-02 2.0684527085652596e-01
      3.9921350646602449e-01 -1.0476267345315460e-01
      1.9143398930831279e-01 2.0921372214398393e-01
      -1.2752917073757278e-01 1.7030865780733151e-01
      -1.4688436989789225e-01 9.5662165889288747e-02
      -2.0987361745544808e-01 -9.3730461351666378e-02
      2.6931771160059381e-01 1.3918622368312988e-01
      -1.6114368165783477e-01 3.2620604731572733e-01
      5.6202877519671179e-02 -2.1028144877193644e-01
      1.7445311944197673e-02 6.2397041737544223e-01
      3.2612980838664082e-02 -9.4082072046240403e-02
      -1.0970574635862196e+00 -1.3096120644461504e-01
      1.5591239186139970e-02 -1.2971151195027930e-01
      -1.7414286590964467e-01 1.7810929827812874e-01
      9.4373751827676589e-01 7.6900429803464163e-02
      -1.9330469723269073e-01 7.0620619925638534e-02
      1.3090132891705059e-01 -1.5727705083338125e-01
      -7.2419822332070297e-02 -2.4755394958348557e-02
      -2.5794341995937087e-01 2.9391907140005197e-01
      1.3470078590015769e-01 1.6663453244723594e-01
      -1.1338807406667296e-01 2.2621431008807133e-01
      3.1762354061301618e-01 1.4715716271193074e-01
      1.0988641937811340e-01 -2.1723622444958457e-01
      -1.2682806339398094e+00 -2.5238864363860001e-02
      7.0067688294618999e-02 -2.3712990190560998e-01
      7.1507635801679487e-02 -6.5834202021052890e-01
      9.3281336423859093e-02 -5.0691743978082508e-02
      -1.0059223091195049e-01 2.1954441951493064e-01
      1.3239999322448234e-01 -7.2344374160824523e-02
      1.1773134036241893e-01 3.8950936538808323e-02
      -1.3183264924197331e-03 -1.1734114511278623e-01
      1.6842763194243773e-01 -2.4980731194368150e-01
      -7.9352303996960666e-02 1.0996704539317892e-01
      8.4886542953077293e-02 9.1203054757158286e-02
      -1.4378948873631431e-01 -1.0814235916588016e-01
      -5.7755314935261162e-02 -1.0403188163064075e-01
      -3.1175862377032254e-01 -7.1902879977197881e-02
      1.2406862825777369e-01 -9.8054062608644202e-02
      1.0864767025821885e-01 -4.9387390617871119e-02
      4.8266496620290145e-01 2.2132868585379920e-01
      7.4530243404034219e-02 4.0675657008461465e-02
      1.5828024499318527e-01 1.7973153994043242e-02
      2.3310738250871624e-01 1.9046375854304128e-02
      -1.1775238108774631e-01 -1.7568510853600430e-01
      -4.1808476716304943e-02 -7.2175803882154915e-02
      2.5505810928873360e-02 -9.5250586782408789e-02
      -3.1450977732179447e-02 -1.4658342662174076e-01
      2.5529875523581141e-01 -5.6886666947191772e-02
      -5.2180263462788513e-02 -3.2694113265077721e-02
      1.3540989815972413e-02 1.8223278205882712e-01
      -1.3840982878972710e-01 -1.6543335834180950e-01
      9.0906652011863681e-02 1.8200406704948574e-01
      1.8543637379726158e-01 -2.7015517649049664e-02
      -1.1821311314152017e-01 9.7708226712727456e-02
      -1.3455278224438443e-02 1.4482954521088173e-01
      9.5875233934594080e-03 -1.0283577884889308e-01
      -1.1986234679438584e-01 -1.2462923296899897e-01
      1.4026540811195032e-01 1.0052437880380721e-02
      1.5067039438004790e-01 -1.3951571839334242e-01
      -3.9600968757319117e-02 5.4823541442309262e-02
      -7.7588773319630905e-02 -2.3055525787489234e-01
      -1.7429364623131319e-01 1.1590934497266574e-02
      -1.6372299221893949e-01 -5.1866806317336561e-02
      -4.8691135615276387e-01 -2.4457537566503137e-01
      6.8114026776107839e-02 -3.0824992323300149e-01
      4.1609825312839112e-02 1.5430995915737161e-01
      4.0473948261596232e-01 2.2898136901219732e-01
      -1.8006149297707758e-01 2.5519617810009894e-02
      1.3778697883362839e-01 -2.2953505430978249e-02
      1.1681222821182496e-01 1.0001370686938531e-01
      -2.3255190981133354e-02 -1.0402586051827432e-01
      1.0364019432908936e-01 -4.1378405238249828e-03
      -2.7465348775277393e-01 1.0079247362868228e-01
      -9.0627060615039473e-02 -1.7782408386416557e-01
      4.7655906623531169e-03 -6.7962030538853510e-02
      -2.0082746787081862e-01 3.6172496661462761e-03
      -1.4573880526330463e-01 1.6896052767164721e-01
      3.2185770014202600e-02 8.2717287321998401e-02
      -9.7244167823503269e-05 3.6721441201972710e-02
      2.0555236537515495e-02 -2.9773123078823172e-02
      4.3112975681781240e-02 7.1482469602724294e-02
      2.1605014391215738e-01 -5.5835929226828902e-02
      2.5796033539485074e-02 -2.6470046211580365e-02
      -2.2353095998246289e-01 9.0219122748480485e-02
      -1.9988712282144191e-01 1.6036020897925890e-01
      -2.0626810135904633e-01 2.8656373636595051e-01
      -2.9055176654475521e-02 -1.6881808495480802e-01
      -6.1691311403639530e-02 -1.1393921835915852e-01
      -5.0514937928987558e-01 -2.9020063744791935e-01
      -1.3747798659650753e-01 1.1404896825625653e-01
      -1.4489954989173415e-01 -1.2411255986723908e-01
      5.2546940661936430e-02 -1.7044301335009215e-01
      -1.6073523066818268e-01 -8.2159181656780683e-02
      4.7688057233208200e-03 -2.5388806548912674e-01
      3.2877623155670735e-02 -9.5376753139882302e-03
      9.6012373830876949e-02 -6.6065904541104517e-02
      -1.4069086858816232e-01 -2.3633275359632036e-01
      6.4845964317349333e-02 -1.7236717023196479e-01
      3.1596220712533840e-01 5.5283142601977434e-02
      3.0223436525983255e-01 1.6174925089949654e-01
      1.7822532673586572e-01 1.0530439463427402e-01
      9.8081648646709235e-02 8.2242010327342810e-02
      -2.1185441603520633e-01 -3.5720197127944345e-02
      8.2710867830253687e-04 4.9476458591763792e-02
      -1.3720615841152242e-01 -1.2805868147364555e-01
      -9.6283263918246625e-02 2.1497093885078333e-01
      4.4175779556091102e-02 9.2357247614887325e-02
      -4.7010388512908903e-02 1.8547972565811544e-01
      1.7575624312975813e-02 -9.1912691441034222e-01
      -1.5687011891522715e-01 -2.0809614061265405e-01
      -2.0139085618931871e-01 -3.3436481183073993e-03
      1.8249001403588866e-01 -1.4017324159987612e-01
      5.4326318358964162e-02 6.2729361693051683e-02
      -9.4668708946205299e-02 8.6604742893089476e-02
      8.9626529253035242e-02 6.0447680760590781e-02
      2.5766884430633608e-01 6.8008799637629722e-02
      2.3575643928428963e-01 -7.0253198207241505e-02
      2.6947421444787417e-01 2.6937174107053304e-03
      -9.4440819807021167e-02 -8.8890383705775622e-02
      4.6954589848767514e-01 4.2804954371044354e-02
      -1.5442831655949410e-01 -2.2924020931148337e-01
      2.2868291460574727e-01 -2.7103089626141053e-02
      1.8871374862920498e-01 -3.1162993397778327e-01
      -1.4555458616380190e-01 -3.0707296310955329e-02
      8.8150606467528272e-02 -1.7600064283479533e-01
      2.7438463351834169e-02 -1.8260493062824770e-01
      -6.3650185790849556e-01 -1.1834050538742284e-01
      -1.0492529922191030e-01 2.0682590919986135e-01
      1.4670278365073877e-01 -1.5522708085125503e-01
      -9.8328900526187202e-02 1.2016176316430369e-01
      8.1819539030281909e-03 -1.3268379488780391e-01
      1.8510222856002773e-01 -8.6638484288771522e-01
      8.0037958390358946e-02 8.4206444218186280e-02
      -7.8445237912305454e-02 -2.7050622349135273e-01
      -2.2048707624112404e-01 6.5733718711919450e-02
      -1.3974113488083245e-01 -2.2514651735055978e-02
      1.9560565291493522e-02 1.3329841870406655e-02
      1.2584242785757210e-01 -5.6339981914838057e-02
      8.9038686213718590e-02 -1.4356052754768561e-01
      -7.3768575936203784e-02 -2.4380049135462867e-02
      1.7762946687809081e-01 3.4747170835090373e-02
      5.1065288912796949e-02 -1.5421872076298755e-02
      -1.2746267828352936e-01 -2.2932769284252696e-02
      -1.9111451216380790e-01 -8.6765198419935741e-02
      -1.4823318148226758e-01 -6.5301468946094825e-03
      -7.3240580677637349e-02 7.7354994616432304e-02
      1.0157372955039248e-01 1.8879391832428760e-01
      -9.7498115282505876e-02 2.4826496985453456e-01
      6.8663070928320274e-02 1.4632640550968923e-01
      -2.2612487844400928e-02 -1.1813778542690717e-02
      1.0259799539846266e-01 5.4215879657545533e-02
      -6.1398170084477753e-02 -2.4366421552482373e-01
      -7.3179705311928606e-02 1.6977150485757789e-01
      -8.5669084078166154e-03 7.2434857380714465e-02
      1.5168529956509352e-01 -1.6681870853052069e-01
      1.2487692366735852e-01 4.6001823310682609e-02
      3.7119942397148123e-02 1.2691347938326278e-01
      7.5633217703755737e-02 -3.4361860335735607e-02
      -2.2258400971193398e-01 1.2394705296222094e-01
      1.1161287493914787e-01 7.3621611536630563e-02
      9.8375287080418830e-02 6.2908246038406432e-02
      -9.2903014898395075e-01 -2.5813961990879258e-01
      -6.4208890629910184e-02 -6.6900921641019725e-02
      -2.3689115662284593e-01 2.8053549414276835e-01
      5.9810757878432341e-01 2.8487448377780283e-01
      1.3502742212323483e-02 5.9524757014127065e-02
      -2.7487333852500352e-03 9.7304239834783340e-02
      -2.3938056087513210e-01 2.8118455094546999e-02
      -2.6042373698712590e-01 2.1885338216230352e-01
      1.3944579888453251e-01 1.8670991227809611e-01
      -2.2182072925314232e-02 -6.5885942965159969e-02
      -3.6589428800160327e-02 2.3520105946824698e-02
      4.8787084766963279e-02 -7.6377081751868567e-02
      -2.5073673699897392e-01 -2.4719454312084171e-01
      -6.5330480011599273e-02 -4.6795224836153171e-01
      1.4183445908360043e-01 2.6620059387314760e-01
      1.1687971445592024e-01 2.9397138973273385e-02
      1.1983217910284920e-01 2.7855222908402544e-01
      2.0733755080403929e-01 -9.2302599655484679e-02
      9.7640290404804847e-02 3.5651682995125202e-02
      1.0375993544179408e-02 -1.0900746557171748e-01
      5.1763631837885439e-02 -1.1409644212884498e-01
      -1.3193692641911112e-01 -9.3229791547023277e-03
      -1.1717073217293837e-01 3.5099422170951000e-01
      -1.2480354997977185e-01 2.1620572622120759e-01
      2.6994654894491998e-01 -4.8579595241270104e-02
      1.3491168050131183e-01 -7.7406213101738220e-03
      3.2299674396555156e-01 -1.2505621272318806e-01
      2.6334495975572531e-01 1.8522781997557339e-01
      -2.4444406982025468e-01 7.6770489131779154e-02
      -2.0579928713506737e-02 9.6166154972954776e-02
      -7.8005109885517024e-02 -2.3422650847420989e-01
      7.8999697683893949e-02 5.7534783027934001e-02
      -1.5514146007858842e-01 -8.8707157120137464e-02
      -2.0110222371487834e-02 -8.3512930754082847e-03
      5.8466067775836295e-02 -1.2686568706960232e-02
      1.1104657451671839e-01 1.4882204961131590e-01
      -1.2785857048252514e-01 5.6386323574927712e-02
      1.6457594219266136e-01 -1.5573634466321168e-01
      2.1911395201260429e-02 1.2892286169367181e-01
      -4.6223437842560326e-02 -1.7459287100958018e-01
      9.0637276728784050e-02 -1.7745680710976642e-02
      -1.1399608544810008e-01 -2.7029879847528786e-02
      -4.1333103720524837e-02 2.9228574487699083e-01
      1.6466414821245243e-01 -4.6886576692153376e-02
      9.4556580214087582e-02 5.2723431545603536e-02
      8.0762233542323369e-02 -1.4818892555796861e-01
      4.2072586429291253e-01 4.9390802950567650e-02
      2.3897296052679290e-01 -1.1604776033814755e-02
      -2.5630256583935061e-02 1.5600590352387878e-01
      -1.4255841227336388e-02 1.1657222685609188e-02
      -1.2538164868181650e-01 6.1010406516144649e-03
      -2.4052099923343978e-01 -3.6047436248688232e-02
      -1.7001350014995942e-01 3.7524879622243330e-02
      -9.4838617056006561e-02 -1.6682844873841349e-01
      -6.9747625027725382e-04 1.2542873897913773e-01
      3.4684998274688761e-01 2.1535637188227100e-01
      -1.6073497794593478e-01 7.6734445504494389e-02
      7.8251046862105267e-02 1.1873681964254704e-01
      -5.1589792255798718e-02 1.6093621074548986e-01
      1.0896325540098581e-01 -1.8604029067977404e-01
      1.0550726036687841e-01 -1.4726496393032379e-01
      -1.2317536419152980e-01 -4.2373128305167831e-02
      1.0425611659955722e-02 2.0452000213200788e-01
      4.2502174585849596e-03 1.6153724494369648e-01
      -3.5571071585524909e-02 -1.4621883179745576e-01
      -3.6153166976577183e-01 5.6246585539664357e-02
      -2.7834060601470223e-01 -1.2055430083156092e-01
      3.3539295534513675e-01 2.3443310043718044e-03
      -1.0103625464080142e-01 2.2613222512780032e-01
      -1.5246270216099847e-01 8.7987209843168754e-02
      -3.0820792445991024e-01 -1.2634005509528953e-01
      -1.0593837422646454e-01 -1.7287236406035367e-01
      -2.7401987579675219e-01 -1.7198894660950120e-01
      -2.1008185095453089e-01 3.7009550241769323e-01
      -1.3183601702360742e-01 -6.6410297252062322e-02
      1.0175026187940180e-01 -1.6549038081749165e-01
      -2.2271971724389450e-01 4.4739463450162949e-02
      -7.7711441408057613e-01 -2.4339522874685582e-01
      -9.7829392648344629e-02 -1.5478209223362882e-01
      -6.6637807310450409e-02 9.0171334453510318e-02
      1.8738327654094038e-02 -9.3027160372793460e-02
      -3.0349671171742670e-02 8.1028588040785859e-02
      -5.6466563226066128e-02 1.8335767107471115e-01
      -8.8135968787225336e-02 3.3461418480145493e-02
      2.1772279074023421e-01 -2.4047468014921650e-01
      1.1127493888353925e-01 -1.0265559398347744e-01
      2.3673776991815165e-01 1.9172775208791143e-01
      2.7393680838424395e-01 -1.1361527261239261e-01
      -2.7924906725511928e-01 1.1383055571494771e-01
      2.0584138536708305e-01 3.6603996180173369e-02
      7.6857287044866524e-02 -9.9243164036939696e-03
      -1.5798687646241014e-01 -3.3657738557308636e-01
      -1.3992678473943085e-01 -6.1870699846948339e-02
      -1.8211011279413211e-01 4.7745793875819564e-02
      -4.4373333751378236e-01 3.2184227428872242e-01
      -1.8282626779039107e-01 9.2364130224053057e-02
      8.1409558538894658e-02 1.6921349316811529e-01
      -1.5313768514175491e-01 4.5800153005418853e-01
      -7.9965440378945996e-01 5.5726532150525365e-02
      2.6061131388753656e-01 -2.5573061417386950e-01
      1.8220859514598003e-01 -6.8500256280984731e-02
      -1.0172207417740028e-01 8.6939620513450458e-02
      4.9995759591618429e-02 -3.0174315912248584e-01
      1.2856804687910403e-01 8.1687770872544599e-02
      2.4257898339331389e-02 1.6927691378781665e-01
      1.2993888490738137e-01 -2.3238576523438037e-01
      4.8826763002582890e-01 -6.3940245791537387e-01
      -1.3266660232198357e-02 1.1477450598059173e-01
      -4.3031938831301825e-02 -2.3035346846002131e-02
      -1.4438042769898207e-01 -2.4862487838648864e-01
      2.0477782767181521e-01 -3.8996767260643814e-02
      4.8903243981106501e-02 2.2101351814561906e-01
      -2.6427479526459241e-02 6.6219422822427376e-02
      3.6715457033602045e-02 -3.1182184274272351e-01
      -1.6497465807916567e-01 -1.1961529146085360e-01
      1.0292968717624777e+00 2.2968020610299225e-01
      1.8185434266373474e-01 -3.4345156373088626e-01
      1.4834960386417376e-01 -2.1396828851345848e-01
      2.2305607215099518e-01 2.2121143289251713e-01
      -8.1375038505879932e-02 -2.3672158060541257e-01
      -9.0256544020470980e-02 -2.5888262158982961e-01
      -7.3619823809064996e-02 5.7755440918357798e-02
      -1.9589239574175737e-01 -4.3084075061426211e-02
      -2.5675293015487859e-02 -7.1411955587409329e-02
      -1.8138263871713689e-01 -1.3713948723937119e-01
      1.9249871698793122e-01 -1.2961515116057645e-01
      2.6889631053959701e-01 -3.0934979898835097e-01
      5.0805311347599226e-02 2.7826599029480720e-01
      1.3434309109398149e-01 -2.1252766968788009e-01
      -3.0298319558444436e-01 -2.7639328484949199e-01
      -7.9835013060998536e-02 1.0756571765570160e-01
      -1.4495708921395833e-01 -8.8959560179303732e-02
      -1.7438862261324575e-01 -1.9563730570471841e-01
      -6.9195884629002224e-02 3.7388158528979962e-02
      -1.5335657144540465e-01 -1.4998828770096034e-01
      -6.0167098668256230e-02 9.4205334410909947e-02
      1.1038110219456521e-01 5.8394014474517135e-02
      2.2761450861688751e-01 3.3241832144406180e-01
      1.9895619989177790e-01 3.3279237316985524e-02
      3.1844781727561211e-01 8.9761374846209427e-02
      -1.0426274935252049e-01 -1.5877205224963803e-01
      2.3135611123137897e-01 2.6824598807888977e-01
      -8.6896335723383233e-02 4.1876870570464984e-02
      -1.3504730469983531e-01 6.0871798998222801e-02
      -1.5410418702998160e-01 -1.9194541300581339e-01
      -3.4253475291662960e-01 2.1120655127257101e-01
      1.5908525442835894e-01 1.0222587184998899e-01
      -1.2454616783457484e-01 -4.2836661540565930e-02
      1.0418313473233726e-01 -4.4750284151016853e-02
      -3.4971745618137672e-02 -1.6556673752811158e-02
      -4.4544223521711485e-01 -7.7023876039101019e-02
      -2.6371945066166691e-01 -1.8023804084003442e-01
      -2.3385634277835426e-01 5.9222255990877784e-02
      -1.4494999677514708e-01 2.6876550436841617e-01
      3.1385893440848377e-02 4.6938101408024797e-02
      -1.0812850792943451e-01 1.5144765995321557e-01
      -1.5040871846611195e-01 -8.6817779481324034e-02
      -3.0364494527399954e-01 -5.0705568090009770e-02
      -1.3210997955812123e-01 1.2296373040552472e-01
      1.3014493083421233e-01 -3.1898570925902973e-02
      2.3196226801699010e-02 -4.3344658703007577e-02
      1.4183728256038586e-01 -1.2957056752134005e-01
      -1.0562393797553988e+00 -2.5105448292999843e-01
      4.1389094911109493e-03 1.5398162325987555e-01
      2.6471588682909292e-01 5.8520402313409603e-01
      7.0787238455662066e-02 -5.7996959603206166e-02
      1.5006498980101146e-01 9.1608477107050221e-04
      2.7055685777879879e-01 9.4601824223557548e-02
      1.4876317345532403e-01 1.2238253341997682e-01
      -3.8513926116260686e-02 2.8938818743276702e-02
      1.4479089486292956e-01 -2.9050776003214877e-02
      -5.3941434704938354e-02 -1.1380102253626492e-01
      -1.8527643883384338e-02 2.6637623742904071e-01
      -6.1812615587316072e-02 8.6565326095334197e-02
      2.6013033413853692e-01 -5.6290188065915632e-02
      8.1775582300355878e-02 6.7105929731646752e-02
      -3.5328561756952342e-02 -1.5136707547806239e-01
      1.7497131463319276e-01 3.2224625759268516e-01
      1.6273588940457401e-01 1.7129606033081612e-01
      -7.2974730676967345e-02 -9.3044979197223293e-02
      1.4049243688533422e-01 -2.7283813689914910e-01
      3.3342594166802741e-03 3.4826556440172338e-02
      -6.0199216907311059e-02 -2.5363012464156698e-01
      -1.3506011092461140e-01 -9.2195723118841277e-02
      -1.0902938189582347e-01 8.3832822172286409e-02
      1.1390654963405657e-01 -1.2236948656937931e-01
      4.1438723974860653e-01 1.2199257369126312e-01
      2.2494919561062426e-01 8.9421597099296646e-02
      -1.3905730579545625e-02 8.6643063005712423e-02
      -4.4310378195172320e-02 1.4716125506536549e-02
      3.1861708596496882e-02 -1.1275483038462171e-01
      -1.6974938682671317e-02 -1.8007075035781311e-01
      6.6927772281276804e-02 3.9926515545127450e-01
      2.3034332714607610e-02 -9.1982780268074285e-02
      -8.4597489739155485e-02 -1.2687804917410272e-01
      1.9914225393586441e-01 1.0843258920290148e-01
      1.3588332566318209e-01 -3.2270416726769675e-02
      3.2510866815176252e-02 -2.2012530442214234e-01
      -5.5429871201037810e-02 1.6019908193438015e-01
      -2.7211530290189564e-02 1.1359095017745489e-02
      -1.6117692606708350e-01 3.7479717553228424e-02
      -2.2848079534751455e-02 1.1210178961176893e-01
      -4.4224358755979265e-01 -2.6905507109389248e-01
      -2.3754147240045028e-03 -5.0090810239291517e-02
      1.5726039169962272e-01 3.6782391452416498e-02
      2.6553008639348769e-01 2.6699220623510755e-01
      -6.1993879520209065e-02 1.5840565321127328e-01
      1.6075786206067813e-01 2.0912407919060235e-02
      -2.7155186413332388e-01 3.8589649649471557e-02
      7.0598430155200023e-02 -1.0990029180903993e-01
      9.8080233274585774e-02 -2.2300387567709637e-01
      -1.3186162896696693e-01 2.2301720487413124e-02
      -1.4432542457236344e-01 -3.1353986227244737e-02
      6.2564177457606382e-02 9.6832101309169208e-02
      -5.6812293887942282e-02 -1.2188044361638799e-02
      -6.0051870979091863e-02 1.4892944178881898e-01
      -1.2986313711831785e-01 -4.1387364905346544e-02
      4.5623438352581719e-01 -2.1675949795489344e-01
      -1.3197777740799821e-01 9.1258367501111867e-02
      -1.4450664711044617e-01 2.0321027006858219e-01
      -2.0831020817374774e-01 -8.5706320155639920e-02
      1.5707862489083391e-01 -1.3086571741704381e-01
      -6.2316240618021691e-02 -3.2310343629496818e-01
      -2.3958732436486566e-01 8.0769256376426915e-02
      -1.9361701408479320e-01 6.9096382432350528e-02
      1.1634719490787667e-02 -4.6399762177078883e-02
      -2.1127266291563504e-01 -3.1317100707277702e-02
      -4.4832964713806067e-01 -1.2593412309239835e-01
      -7.5779745310964278e-02 -2.7213515015681161e-01
      -1.4218976682967607e-01 2.7999068163859806e-02
      7.5870402416827201e-02 1.9185492265243304e-01
      -2.0735034951282441e-01 7.3345619790125105e-02
      6.6507822754181586e-02 9.5987369549044022e-02
      -2.6767272141033466e-01 6.3866652107119740e-02
      1.7372698868118888e-01 -5.1685929113882478e-02
      3.4770493931850555e-01 -2.4506301928324986e-01
      1.5241049225528613e-01 3.5206358068289346e-02
      -6.5110851494533566e-03 7.4278420092118894e-02
      -4.8054840585016517e-01 -1.9705850808475131e-02
      -1.5594896146123377e-01 1.9243424381528734e-01
      4.2004204010317916e-04 6.6321755115918923e-02
      -1.1516594282355561e-01 -2.3920677983619212e-01
      -1.2851439941058568e-01 -8.9618257181247801e-02
      -1.8878198448925249e-01 2.5724573767121395e-01
      -4.6288501419498457e-01 2.3049406894024541e-01
      -2.5565677627887262e-01 2.3905421086880313e-01
      -1.6308302707369784e-01 -9.4013850867505203e-02
      -2.5311143769177208e-01 3.3808130899025117e-02
      -6.6621696272701447e-01 3.3837584462190769e-02
      1.1871155436872345e-01 -2.7404069907960399e-01
      -5.3901797157226608e-02 -2.4282799244400136e-01
      -5.0408013225608402e-02 1.7363892975751916e-02
      1.3337338126726811e-01 -1.6176769995616705e-01
      -1.0386513887373620e-01 2.1121178727060380e-01
      -4.1391907531698198e-02 9.9319873557398144e-02
      -8.3107608710982356e-02 -2.6883037077066313e-01
      4.1187042496107740e-01 -5.3221097769992554e-01
      1.5446510860098200e-01 1.1973086177240048e-01
      4.4595294811020793e-02 -1.8372572130404913e-01
      -1.4740307284288115e-01 5.7658759308259436e-02
      1.0114423336298613e-01 -9.9691361931988826e-02
      -6.0958964195408230e-03 -5.2939908441756978e-01
      -5.5673433968957943e-02 4.4421838922946148e-02
      -1.3865282689396877e-01 -9.9217075471789623e-02
      -3.0750386189057366e-01 1.6387342828511481e-01
      8.7519066866678263e-01 2.2731679632217364e-01
      -6.8665638480603794e-02 2.0383052512558650e-01
      2.9731206835658019e-01 -4.7190614535928627e-02
      2.7842285216858148e-01 5.4726815210666795e-02
      -2.2996562971945390e-02 -1.9183164057391561e-01
      1.4380184579254354e-01 -6.4904270639901696e-01
      -2.7010015008891351e-02 6.6520944657556785e-02
      -6.8120623383880710e-02 -2.7577401219871431e-02
      2.5658946236679891e-01 -5.3054619107586791e-02
      -2.3779314171767305e-01 -2.1120966458979704e-01
      1.8656021145011273e-01 6.1660442413415915e-02
      1.1885912919112558e-01 -1.5656238103838360e-01
      2.4114072994125834e-02 2.9556011495638046e-01
      -7.9193410697860015e-03 -1.5144268570767527e-01
      5.9401165210775642e-01 -2.0157102626897158e-01
      6.0610187853438934e-02 6.0691336289972933e-02
      -2.0486287419650343e-01 -6.6696097600375745e-02
      -1.1587847900317499e-01 -2.0960837610013452e-01
      -2.8385651505056869e-01 8.2477976795058763e-02
      -2.0761503965782654e-01 -8.0766675647711408e-02
      -1.9881993255019903e-01 3.2987223996577630e-01
      7.6135414706758192e-02 8.1874903503461813e-02
      1.6668165906310101e-01 1.3524612815628090e-01
      1.8356234376796601e-01 -1.8862453554041345e-01
      2.4452738793401312e-02 2.1987174966591541e-01
      -2.8540707739782356e-01 2.0233943726637105e-01
      1.7047773864042140e-01 1.5293043012801982e-01
      -5.4379830030881815e-02 1.0551201616631763e-01
      -1.5251396898996469e-01 -4.2452526031634692e-02
      -3.2830339338504672e-01 -3.0139122256013096e-01
      2.1670673004271024e-01 6.5675597910067607e-02
      -7.9557541489917467e-03 1.1262675090218209e-01
      5.4560195489143787e-02 -1.1521639811003183e-01
      2.4952128926491973e-01 4.8739007691331611e-02
      7.1163400022981757e-02 9.1868125629892966e-02
      -3.5944184802939433e-01 -2.4832125767572158e-01
      -1.2691961347438005e-02 -2.1506411309968834e-01
      -2.4473737754281832e-01 2.7599887484479887e-02
      1.2942097635061764e-01 1.0789312267683701e-01
      -4.6915556378632123e-02 2.0367700931685001e-01
      -2.6989651358582284e-01 2.1038505639562757e-01
      -3.5692082478408695e-02 -1.2082359535942597e-01
      -1.6191932761826877e-01 7.5486972655333121e-02
      -1.2570557801393686e-01 1.3269977836054370e-01
      -1.6018538799002990e-01 7.6295830695877295e-02
      1.5505558842862857e-01 -3.2724047564370480e-02
      2.2204122825014821e-01 -1.5996205511026998e-01
      -7.7335021062194420e-01 -4.3915180937594979e-02
      -1.9203035824168793e-01 -4.6152160234129047e-02
      2.6366528706844489e-01 2.2186940093393062e-01
      9.5175010632477700e-02 2.5543224041920061e-02
      -3.2903866270191519e-02 7.0905438688151981e-03
      3.6581595239831088e-01 -5.4802524858938058e-02
      1.2166408552169189e-01 2.0682625162556992e-01
      1.6080579304603901e-01 5.8732855270675628e-02
      4.8648692961471611e-02 -2.1956848746440488e-01
      -1.7457307579618989e-01 -2.3272466413654047e-01
      -2.0025853106810043e-01 2.2058449253192222e-01
      4.8377662998570110e-03 2.6333102994577590e-01
      5.9477589915765489e-02 -2.2533281002491912e-01
      2.5388745778406407e-01 -3.7660323216977369e-02
      2.6887574151055210e-01 -2.7574769673220439e-01
      1.5935230391734478e-01 1.8230861701542464e-01
      3.0952955969484280e-01 7.7084066542133844e-02
      -2.5393323408319635e-01 4.3045502589218312e-02
      1.2429928620484344e-02 -2.2632380414239324e-02
      1.6805514515290154e-01 2.3616165964383884e-01
      -1.3338159104367631e-01 -1.6821531622162061e-01
      -6.4012070548201960e-02 -1.6332818080735248e-01
      -2.0622443476400856e-01 9.5715450410372965e-02
      2.5192666246606221e-01 -1.6853506590587600e-01
      5.2094065411559831e-01 7.3077436317283875e-02
      2.3122719890694904e-01 1.0566280015545887e-01
      -4.8234730830310706e-02 2.0504193586678909e-01
      -1.3147198351941028e-01 3.3744017941733637e-02
      2.3916456322287200e-01 -6.9547126785935703e-03
      -5.9814560663121644e-02 -8.0869900463891017e-02
      1.0133128091293399e-01 2.6658863590017723e-01
      1.9304003651974294e-01 -1.1910241527378403e-01
      7.1321649514750158e-03 1.0438934873729579e-01
      1.1935881304377507e-01 1.8629594258292731e-01
      2.0768354173491085e-01 -4.5592454974060601e-02
      1.4977883861777599e-01 1.8038135236366049e-02
      -2.4106062543353568e-01 2.5751556109290330e-01
      9.2779284845190130e-02 1.8625829093425875e-02
      -2.5573315586573447e-01 4.0307164901686836e-02
      -6.2722139676142818e-02 1.0547055478814199e-01
      -1.6752566062423013e-01 -2.6978539278096964e-01
      -1.3793946351328867e-01 9.4458273111148183e-02
      2.5479815217972940e-01 9.8647905588043774e-02
      1.2980688759060754e-01 1.4191462727486182e-01
      -9.6524293307752321e-02 7.0595385531082466e-02
      2.0286506750040356e-01 2.6605797518194940e-01
      -2.6159622557751888e-01 9.2490859364213238e-02
      1.0455512751122205e-01 6.5158919021182315e-02
      -1.8845701911277803e-02 -1.7128733272996308e-01
      -1.0289352213921545e-01 -3.4560579324718438e-01
      1.5422691048630680e-02 5.8604933854947742e-02
      8.2785062106832744e-02 3.0376634745451919e-01
      -1.8956925145664949e-01 1.2342086930725374e-01
      -8.8115742791514143e-02 1.5561134568242913e-01
      -5.1933678021848118e-02 -1.2494051583427654e-02
      3.4407978752195750e-01 -1.1008818923223704e-01
      -2.3392571594539899e-01 -6.3648427188642942e-02
      -1.8542411623465646e-01 2.5083531463764702e-01
      -2.7101093849890695e-01 -2.3919937381480599e-01
      1.1868576495673261e-01 -2.3308910141513606e-01
      -2.8304210826631132e-01 -1.8286328913301017e-01
      -1.1567609516649226e-01 2.6021176209009927e-01
      -8.6770393065000118e-02 1.7321283104626375e-01
      1.0159570776097726e-01 -2.8048739046640436e-01
      -2.6953573205082076e-01 7.1173637676568910e-02
      1.4943218271989450e-01 -1.7992485880654774e-01
      8.3073599240937046e-02 -8.8313555875623631e-02
      -1.4319561993889107e-01 -4.0400862070191210e-02
      1.1623257819306509e-01 4.9808068987165326e-02
      -4.2217534945598406e-02 2.2377716332348241e-01
      1.1893347702506496e-01 4.2734746228224607e-01
      7.6596345571901550e-02 2.1310143804585515e-03
      2.6773451911700158e-01 5.7768491861587994e-02
      3.6820736182209976e-02 -4.9513274511754676e-02
      -5.6323667384157623e-02 1.9989042256975445e-01
      2.4685617513963332e-01 2.7235643958824446e-01
      -1.8376079431041470e-01 1.4553636716916568e-01
      -2.4400450923492628e-01 1.3778518261266770e-01
      1.8502763165180938e-01 -1.9245518779873866e-01
      -9.0916520278748664e-02 -3.0631103616068650e-01
      -9.2854088036855284e-02 -8.5184253516851841e-03
      -2.6041924430395680e-01 9.8142927092654250e-02
      -5.4440220396911050e-02 1.7356037773562016e-01
      -1.8988217197244395e-01 2.8545557012430611e-01
      -5.4196120016678374e-02 1.8292608841642777e-01
      5.6995870126243849e-03 2.5640203174103859e-01
      -4.9233562068031929e-02 -2.1074183490160731e-01
      1.0127966593509859e-01 -2.3642350369477164e-01
      -1.3304146237261257e-02 -9.4445542005235528e-02
      -9.3666039955632815e-02 -8.6164436848245415e-02
      1.3105274102052927e-02 1.1682641206626920e-01
      -1.5385764639134394e-01 2.6295533772213348e-01
      1.5163061139797285e-01 1.6778943468542823e-01
      1.6637494050081919e-01 -4.1679040711223615e-02
      -2.1689488945137655e-02 -1.5985082960028871e+00
      1.8226216392371061e-01 2.8712914775137049e-01
      1.5734230482696959e-01 -1.0388748500202116e-01
      -6.3545973338751519e-02 -2.9821147384342228e-01
      1.1357402081378039e-01 3.7052632541632165e-02
      2.1266855485193631e-01 -4.9705241350939650e-01
      -2.7646048999827960e-01 4.7463126781762184e-02
      -5.9687285396196985e-02 -1.7214885022303736e-01
      -2.2382107337372983e-01 1.9878976134758020e-02
      -4.7398145153893470e-02 2.5362350015568275e-01
      1.1068413107774980e-01 3.2148718201235027e-01
      2.2287412481907781e-01 -4.2248686472448260e-03
      2.1638891087855228e-01 1.5513648845571096e-01
      -4.4544638274100060e-02 -1.1292725040996873e-01
      1.5983829630934868e-01 8.3696739495908237e-03
      -1.3031234651647364e-01 1.6650928371584262e-01
      -4.0251526513421049e-01 -2.3192896976933827e-01
      2.3297243310951701e-01 -2.3746412924733171e-01
      -1.6079811471918817e-01 -2.2917250429615232e-01
      1.9398914057379979e-01 -1.4788510166322050e-01
      1.8816337592252333e-02 -2.1906897249125196e-01
      -5.6640311957267091e-02 1.8066071937988962e-01
      -2.0599133623162770e-02 -1.6910598062710991e-01
      7.3500912342025071e-01 -2.9925658678565636e-01
      3.7772428907104326e-02 2.5743753780813494e-01
      -3.0888941096012934e-01 6.1946229567761801e-02
      -5.0573357337871327e-02 5.0398131401966292e-02
      -2.8358298182986597e-01 -6.9023765459984024e-02
      -1.9649700441505819e-01 -2.0866235238559000e-01
      -2.6204389019223578e-01 1.1063557730462885e-01
      7.4319650340361643e-02 1.1663165595588912e-01
      2.1535770748774458e-02 6.5888632322753687e-02
      2.2867373212878639e-01 -1.5060890193915469e-01
      2.5709429314987797e-01 1.5284354805713862e-01
      -1.7836920784002047e-01 9.0498588765634352e-02
      2.2324187195312595e-01 2.6991578727627287e-02
      -2.3920755921698245e-01 1.7823120150107738e-01
      -1.1284376516299105e-01 3.3938594342759602e-03
      -2.3334280847873901e-01 -9.3360417991616249e-02
      2.2055308134708887e-01 4.3864914168239962e-02
      9.2531118753370958e-02 2.8284707099894846e-01
      -5.1565833237958991e-02 -1.0719979515704095e-01
      1.7739980474334666e-01 3.6549141254828443e-01
      -1.1099799011813155e-01 2.1019806575163100e-02
      -7.4345383584067296e-02 -2.0850687690472655e-01
      -1.6526462945629422e-01 -2.6191954600019381e-02
      8.9456526094353842e-04 4.9542257212282864e-02
      -2.6483392557711344e-02 8.9685963335761218e-02
      6.0215397757619304e-02 1.6846539578510785e-02
      -2.1604816449750225e-01 9.0556559770153755e-02
      -8.3884889758946146e-02 -7.0239772115307991e-02
      -1.9018889616396753e-01 3.3995260990580861e-01
      5.1257999926096046e-02 2.4518232354007236e-01
      -1.2151071561665052e-02 1.3285690409800333e-01
      -1.4341729427401548e-01 5.1014472058738297e-02
      2.3122443325716019e-01 -1.2607029382034540e-02
      -1.0363242201894136e+00 -7.9674194807252061e-03
      -2.1410573693152510e-01 -9.3375588069989676e-02
      3.1026763221089965e-01 1.6826362197467168e-01
      9.9740571555614624e-02 -5.3386289889271327e-02
      1.4342794818012389e-01 2.5783525470453230e-02
      3.2511854303238297e-01 -3.6096226911814397e-02
      -1.0246583276787750e-01 1.3079925422767326e-02
      7.9351516392961924e-02 -1.7068685097304770e-01
      2.0305630048106521e-01 -6.3001631475541209e-03
      -1.6892975842155322e-01 -1.8058743171934241e-01
      -4.7171098610699583e-02 9.4268107151125782e-02
      -9.3879416468923643e-02 1.1188370032712261e-01
      2.7442492716847305e-01 -1.4833064027346540e-01
      1.6158426660711689e-01 5.7446384070866940e-02
      2.7468780767937118e-01 3.7369060079536229e-03
      6.7082645367623664e-02 3.0313640275338150e-01
      3.7311763522513536e-01 1.1918756710861721e-02
      -2.5767211209867052e-01 7.6150264901289372e-02
      -2.6288409842032588e-02 -3.6879230840770202e-02
      9.0922400993636299e-02 1.2907182862712013e-02
      -7.7249849118937286e-02 -9.9504540170744532e-02
      4.6682263521884843e-02 -1.7485362651336209e-01
      -1.4693408967586810e-01 3.0434951030327992e-02
      7.0875022089932280e-02 2.6338410181615576e-02
      6.7376443206062298e-01 -7.7788117646995586e-02
      5.8047020423876987e-02 -6.0417075124415520e-02
      -5.5439438330130063e-02 2.3254629910900321e-01
      3.1467117507355216e-02 1.9165962405346226e-03
      7.1907834844888510e-02 2.8192414765374064e-03
      4.0054258643775226e-03 -2.0499861785730891e-01
      5.5030455329779973e-02 1.3025775747740453e-01
      4.5250374767017154e-02 -2.4749598156274524e-01
      -8.0644581622075023e-02 3.2557308604522862e-02
      2.3399341411513419e-01 2.7928024185739603e-01
      1.2232783475319853e-01 -4.5167287282242381e-03
      2.1147260156034850e-01 -9.7899661163051058e-02
      -2.7284789195556200e-02 6.1363754960012527e-02
      -5.9254278991772297e-02 -5.1157266641495530e-02
      -2.5616203083078321e-01 -1.1624703535308868e-01
      -1.9372867608526764e-01 1.3831894787063497e-02
      -4.2893007503143116e-01 -2.1522077769027351e-01
      -6.2774790272644890e-02 -6.8927763251910712e-01
      1.5540991917273119e-02 1.0998198260591653e-02
      7.2066660195686050e-01 2.3640622978429457e-01
      3.8181370281498983e-02 1.6678859612346927e-01
      1.9207414663600064e-01 2.6337227775866218e-01
      -8.9929167549940334e-02 1.8518291520484587e-01
      1.0108446976280593e-01 1.2234585144533116e-02
      1.4854882571229103e-01 -6.4979530570203146e-03
      -3.2312794539333595e-01 -2.4055792048842947e-01
      -1.3755228734084404e-01 1.6259956743159318e-01
      5.5472266528099480e-02 2.3634378531621988e-01
      -3.9510057806370347e-03 1.5129305042276994e-01
      -1.8611084927492989e-02 -2.4613066516178104e-03
      -2.2496365113118758e-01 8.1151712040446085e-03
      3.3029697303817235e-01 5.3313213456011359e-02
      -2.0604563765172443e-01 1.2834524034336850e-01
      -2.0696187909504335e-01 8.2248549211493813e-02
      -1.9124834781047739e-01 -5.1823214747162512e-02
      2.8921948499842694e-02 -2.2377328000384708e-01
      -3.1493880302497018e-01 -2.4835429466842418e-01
      -2.5311516200970130e-01 1.5750413780156636e-01
      -1.6127637147124813e-01 2.4362197953325834e-01
      1.4579447491878361e-01 -1.0260198006391236e-01
      -6.4374318457651750e-02 6.1233239375515974e-02
      -4.1526664980588479e-01 -2.5435882200047294e-01
      6.7909620929306011e-02 -2.7215409584178435e-01
      8.9815001205363412e-02 1.9006307295601510e-01
      5.9061859849387430e-02 4.4547024257738155e-02
      9.3838134038938620e-02 2.4584725906193791e-01
      1.6671602152739304e-01 1.6782391389637558e-01
      2.1849209217938016e-02 2.4732461169760450e-01
      2.0203242043303890e-01 -1.2383382968199773e-01
      1.3883819519047325e-01 -2.3254038835280280e-01
      -1.8440109957703534e-02 5.5292003402302510e-02
      -1.1858393027147885e-02 6.9902035307037313e-02
      -2.0422383559815688e-01 1.9573248269205054e-01
      -1.3505728194177910e-01 6.6753941031075089e-03
      -9.0757986276757865e-02 -1.5680851405083379e-01
      -4.8087374974080797e-02 -1.7251338065253158e-01
      -1.0777467063790998e-01 1.7375287601343933e-01
      -1.9599999917986854e-01 1.3208422933840294e-01
      -6.1242188722278941e-02 5.2535832464509907e-02
      -2.5290434271290702e-01 8.2184152942614663e-02
      2.1328472406837554e-02 6.2207059962161533e-02
      -9.1929497720198254e-03 1.3299061284852493e-01
      -5.3987425425856585e-02 -6.4709765506644090e-02
      8.1723601202816076e-02 -1.9576978534930048e-01
      4.6173995578615630e-02 -1.5036283687150648e-01
      -5.2163573702774392e-02 5.1756070095226037e-02
      2.0905106462910233e-01 7.5966669406630993e-02
      8.9396202623860083e-02 2.8622412133422093e-01
      -7.4151145976836405e-02 -1.8389111576507963e-02
      1.0574853381896102e-01 -1.4910110306614402e-01
      -3.6031226633396796e-01 -5.0659863146066064e-01
      1.8313590003814148e-01 2.7285311285768155e-01
      1.5584879514290600e-01 -1.2888434038381497e-01
      -2.0473819314864516e-01 -1.1023493976443681e-01
      3.8515399308283266e-02 2.2626947241768381e-02
      1.7318566615264439e-01 -1.6004632016355497e-01
      -1.3114386115380716e-01 1.3069697270021385e-01
      -1.2572196827630663e-02 -2.0128701181959996e-01
      -1.6335765540111083e-01 1.0263689865508936e-01
      6.1596772764613283e-01 2.6379229513991015e-01
      1.2067134882329947e-01 2.2687321754635312e-01
      2.5475904790684273e-01 -3.1782870210070049e-02
      1.3707605528806951e-01 -1.2063521532218742e-01
      1.1187012762246620e-01 -1.3505464844865187e-01
      2.4608742861895805e-01 1.4463856592098739e-01
      8.5807824094060320e-03 2.3902951706753778e-01
      -4.8527350879968029e-01 -2.6263148518912371e-01
      1.3629738078982759e-01 -2.4962489382817235e-01
      -7.7892614820914266e-02 -2.8452356245819510e-01
      1.9319313333378985e-01 -1.1304943464477427e-01
      1.2016072159075576e-01 -2.9739114362451385e-01
      -1.0966661868649330e-01 1.3863587816374323e-01
      3.0147125813738618e-02 -1.2004360551234147e-02
      4.5519910259347979e-01 -1.4485360182755716e-01
      -8.3036884477725503e-02 2.2190514882793064e-01
      -1.3812502008389846e-01 5.1557062620745386e-02
      7.3131038490858474e-02 -9.0113891523859374e-02
      -3.5193315250219731e-01 -9.7320667142340153e-02
      -3.9274777924716356e-03 -2.3578046613266426e-01
      -1.2870280617964550e-01 1.2973454462660844e-01
      -3.2459080199821036e-02 3.0081961474748588e-02
      1.4361728946913682e-01 2.1049614792644630e-01
      6.6805353970971884e-02 -2.1045339799378535e-01
      2.7399187349674082e-03 1.4527407362395575e-01
      -8.2131536133044736e-01 8.5771764827187541e-02
      2.3255337345915469e-01 5.8577323111641863e-02
      -2.7552311956593556e-01 2.1772173041827159e-01
      -2.5688074974179592e-01 8.1454884945952617e-03
      -4.4321531648862163e-02 -1.9050284274278637e-01
      3.9358379953070205e-02 9.3469805124539687e-02
      3.1763041532820516e-02 2.8757209406702045e-01
      4.6397778947297019e-02 6.3866308885291156e-02
      1.7691448219614653e-01 4.2358070258868646e-01
      -1.3353169792173414e-01 1.7175652973000330e-01
      -3.7782166010030682e-01 -3.0929012555646329e-01
      -1.3661725857414384e-01 -1.9158876517845805e-01
      -2.0567160827291248e-01 1.2768888484575816e-01
      -4.1319007763355294e-02 2.6564680236203292e-01
      5.1142698491879503e-02 1.0136946104390561e-01
      -9.2547416038262664e-02 -1.8863657247196164e-01
      -1.1622479433761191e-03 -2.0662348921247092e-01
      -2.0810442908560461e-01 4.2690148385330651e-01
      1.5701992895682074e-01 1.1515649001404171e-02
      6.9144110156426778e-03 2.3123740422543237e-02
      1.7776762786719819e-01 -9.4785760962980137e-02
      1.0446708288482903e-01 -1.1456287325411270e-01
      -5.1050363687453182e-01 -1.3575090754268193e-01
      -6.0658512798863674e-02 -5.3664075653661780e-01
      6.9186997838454833e-02 1.7252830110847994e-01
      1.1728019276374149e-01 -4.8824429321035666e-02
      -1.3949071764104445e-01 2.1074561992714927e-01
      -1.7621365591470785e-02 -6.1625120832405497e-02
      -1.1428769850268329e-01 1.9684572276662918e-01
      -7.7859383909492610e-02 -2.8591769493707491e-02
      -2.1752614775723177e-02 -1.5394066714909604e-01
      -3.3866606936328363e-02 -2.3812860057080984e-02
      3.7956558371820756e-02 9.5310347671856366e-02
      -8.6841509764661123e-02 -1.0912666129897532e-02
      7.5020857354067910e-02 -1.2259105237939093e-01
      -1.1092055286814013e-01 1.6389532093907885e-01
      2.3147285265713988e-01 -2.2534637958030029e-01
      1.2431645586364608e-01 4.3357775918999746e-02
      6.2624063756615833e-01 2.5715691117663881e-02
      3.3364167706546305e-01 -1.9163427799188049e-01
      9.1050673262050741e-02 4.3910581112406012e-02
      -3.2952987247152177e-02 1.3486464626889977e-01
      8.7357139929227182e-02 -2.1101790866460246e-01
      -1.4288660334869760e-02 5.7510892722909157e-02
      2.9311029977540114e-02 -1.4071042753759692e-02
      1.8170031444922166e-01 -1.1360438951070566e-01
      1.0121712065848858e-01 -1.4235917373723977e-01
      6.8341852861128607e-02 4.0757218147253652e-02
      1.6740190015023654e-01 3.6166377682364408e-02
      1.8604618368125079e-02 -1.0165439522593500e-01
      1.7292633608790162e-01 1.3863121385630037e-01
      1.4349314064928956e-01 -1.3653328015189797e-01
      4.4857244739965649e-02 4.2984060959357723e-02
      1.1000187420212632e-01 2.1581016574660977e-02
      1.3155407428369570e-01 -5.9849813744975708e-02
      8.6579742051948946e-02 -1.1113036609398354e-01
      1.5950835092662469e-01 -1.4584325330363608e-02
      3.1339372847890834e-01 4.2672433356760957e-02
      -1.8065580132928694e-01 1.4331616611432724e-01
      -1.7804555985704384e-01 -1.3201822026030635e-01
      -2.6776798106319594e-01 -1.5434921497050136e-01
      -1.0803971031732258e-01 1.4197807750275868e-01
      1.0989380404821451e-01 -2.5871484783031445e-01
      5.6782493819988775e-02 -4.7041991007693978e-01
      -4.3077869341490570e-02 1.6370887791475119e-01
      1.1372915464544189e+00 -5.5782660013311683e-02
      -1.0648453089818433e-01 -1.4614070288478845e-02
      8.6509980318234592e-02 2.7711042463271429e-01
      -8.5497422193327718e-02 -5.3081520070772980e-03
      9.2267407638959353e-02 -5.0452662274809192e-02
      2.4066302297099638e-02 -7.1946130046870241e-02
      -1.6169854713326640e-01 -1.5484340792868678e-01
      -7.5750869926037759e-02 8.0250630071510065e-02
      -2.0851175058497973e-01 1.8231411185154278e-01
      -1.7617147517549592e-01 2.0255837634072479e-01
      -2.1290353265488063e-01 -1.2902652200576551e-02
      1.8734154480227274e-02 8.1888996226279737e-02
      -4.2864518039309130e-02 1.6218221067332364e-01
      -5.2699586083596421e-02 -7.2913324209755125e-03
      -1.1794602631633175e-01 2.9294276378537204e-01
      -9.0338544135156497e-03 -1.4688140660954935e-01
      7.5308299152428093e-02 -6.9122098631684545e-02
      -2.2228148111363370e-02 -8.9409381772638644e-02
      -1.1186328940713212e-01 1.7557255247469788e-03
      -1.7906234199753879e-01 4.6639815651921351e-02
      4.6346190003936652e-02 -1.3548177932179165e-01
      -2.2904134164303014e-01 1.3108573876678700e-01
      -6.6270951889915308e-01 -1.3109608977671899e-01
      -4.4310153455922173e-02 5.3256207483370128e-02
      8.1803172720173498e-02 -1.4941852959926963e-02
      6.6620978943913334e-02 9.6780819561838358e-02
      -6.4677576107938325e-02 2.6249082859077004e-02
      -4.3631435242419830e-02 2.2787106891270864e-01
      2.1805934931440271e-01 4.7434217394636033e-02
      2.8123141243712568e-01 -1.3097041704173651e-01
      -1.1679138545078040e-01 -1.3881152319143561e-01
      1.6242788562016458e-01 -1.2349889829852972e-02
      5.1482268259085445e-02 1.1300555054519291e-01
      1.1163146484627379e-01 2.1029792766563715e-01
      -1.5616198545409402e-01 1.5124895257920465e-01
      -1.0843328174971657e-01 -7.9251398500386733e-02
      5.4456516319149009e-02 6.8799455731078221e-02
      -2.1130592115890942e-01 3.9461237593648351e-03
      -1.7106757676701723e-01 2.2750713776977703e-02
      -4.9512672101269301e-01 1.2675433772720290e-01
      -8.6928649953918594e-02 1.4762289280586097e-01
      -1.0468504637516027e-01 2.7642662278416139e-02
      -1.0593853382326696e-01 -4.3926421147260863e-01
      -5.3795281037205855e-01 -1.8772010687943969e-01
      -6.5386385482418347e-02 -1.0843826736119729e-01
      1.9016838180128365e-01 -1.1704008016957973e-01
      1.7992256991681352e-01 -1.6939690520638806e-01
      2.3646905816927487e-02 8.7745774659862677e-02
      -1.1367994555763533e-01 8.9937761550093771e-03
      2.1328393382851127e-01 1.9330204982616364e-01
      2.7670577466083685e-01 6.1510950350663784e-02
      8.7370096770398187e-01 -3.0365794086886744e-01
      3.8244923274310866e-02 2.2229601673974059e-01
      2.0167180802318824e-01 -3.7983695090724905e-02
      1.5314914988023938e-03 -3.6840185575007858e-02
      -2.4841526861835973e-02 -1.4559171155909634e-01
      7.8400944441254228e-02 2.9979895514326765e-01
      -1.4820520322289957e-01 1.5805091018046880e-01
      2.1300118920727856e-01 -1.0526128878670303e-01
      -6.4847839372384267e-02 -2.1464148565271263e-01
      6.6604911870496220e-01 1.1234083303144078e-01
      -6.7564941671465935e-03 2.4734167327020082e-01
      -5.3578194344000268e-02 -2.3159770374599853e-01
      -6.1342741366257246e-02 -4.7407829430970855e-02
      6.1167285270604950e-02 5.6354944892614604e-02
      2.9459360172501242e-01 8.1869056640854876e-01
      1.3743070215616002e-01 -3.7776827799090161e-02
      -3.8058598799776100e-01 -2.1067617298019539e-01
      -1.3971869385486421e-01 -1.4146681813737291e-01
      -7.2107169296910065e-02 -3.2431578226481551e-02
      2.7407170621618548e-01 -2.5139995652377845e-01
      3.0637912439421783e-01 -2.1002843300991333e-01
      4.5028422904623333e-02 -1.0273650064312873e-01
      2.1717327953725146e-01 4.9983927253584609e-02
      6.4975100147560405e-01 -3.1066240618016089e-01
      -1.7806182044599303e-01 1.6913094019088937e-01
      -1.6012143548737756e-01 6.5128095007023542e-03
      -1.1529520799334508e-01 -2.0776657845926089e-01
      -1.3836831684379594e-02 -1.3537894573298714e-01
      -1.6900882121024466e-01 -5.9771271372399563e-02
      4.8765277717769312e-02 9.2755013160870120e-02
      -3.1114679162907048e-02 1.9460626541239440e-01
      -9.6853217645656201e-02 1.9622807786816940e-01
      -4.7746812166600851e-02 -1.4889450894219597e-01
      5.0517674585141858e-01 -2.1739895127197557e-02
      -2.5715711569949395e-01 -1.7998173003427695e-01
      -5.7615832876506720e-02 2.1132004456497017e-01
      -4.8694247756463548e-02 2.7855381623406283e-02
      4.0934911863114501e-02 -6.4203978040112006e-02
      1.1531530588210886e-02 -1.8422880416793189e-01
      -1.1478167464841970e-02 -1.2746556529186699e-02
      1.1067974570487543e-01 2.4912286020713370e-01
      -6.1863145846072658e-02 -7.8694741098831136e-02
      -5.6422002820432889e-03 -1.7871574838459910e-02
      6.8438628231126231e-02 1.1566417598802015e-01
      -4.6970328747165802e-01 3.4728771190717475e-02
      -4.8270349374038596e-02 -2.4695296295934956e-02
      -2.1629976013917832e-01 1.5975155739816246e-01
      7.9085952957052091e-02 1.5189044667896009e-01
      -7.5413271968523196e-02 -5.8793034376285774e-02
      -1.2399187346079528e-01 9.9320646503117394e-02
      9.0983228228299948e-02 -1.4969430155171212e-01
      -2.3663549498290654e-02 2.5747953153722046e-02
      3.3055903210491178e-02 1.9019737074715862e-01
      8.1238777820767216e-02 7.3681506306311883e-03
      2.1928161605147951e-02 -9.5247468557682166e-02
      2.1515400399463117e-01 -2.2782653735854952e-01
      -6.0014869012124406e-01 5.0059015861997228e-04
      -2.6098473220511769e-02 -2.1846174824829873e-01
      -4.5445203474492367e-03 3.1700311950254079e-01
      7.1976087013272939e-04 1.3460050776321317e-01
      1.0165898479148558e-01 3.5811465256015286e-02
      3.4215060571157405e-02 -8.7627902846159220e-02
      7.5563792364793228e-02 1.6882368562503641e-01
      1.6014848705020041e-01 -2.6760644094601521e-01
      -4.2140084097505928e-03 -2.0934606707239634e-01
      3.4474951951274355e-02 -1.5294935820811470e-01
      -1.8454175867511391e-01 3.2513278328848816e-01
      -1.4931808267279353e-01 2.2553764730883244e-01
      3.0420525109927345e-02 -6.0749531687793831e-02
      2.8836219807882518e-01 1.3723891377169128e-01
      2.5947629383314097e-01 -2.4005976100510923e-01
      1.6506266733441222e-01 -8.0907692138718679e-02
      4.5625032061795232e-02 1.0381610686694046e-01
      -1.5544408541505203e-01 1.6689823408936558e-01
      -5.5892647597635715e-02 -1.7036467801958166e-01
      8.4129841257484086e-02 1.7456800597909861e-01
      -1.2798108575915348e-01 -1.5029152522063957e-01
      5.8698381076472770e-03 -2.1330717473152305e-01
      -5.7655183680596203e-02 -1.2651105190572093e-01
      2.6022495667078660e-01 3.4236837323924976e-02
      1.4392572098574494e-01 -4.1430363964155378e-02
      1.9015207682831792e-01 -1.6028146938110410e-01
      1.4302660889117286e-01 1.9520876174763185e-01
      -6.9398451292950095e-02 2.1445751918767512e-02
      2.2652058163059235e-01 1.6338565986815171e-02
      -2.1409170417402176e-01 9.1668409021795575e-03
      -4.9448436030070486e-02 5.1117089909812757e-02
      -1.0891002759311397e-02 -9.4023120877245889e-02
      1.6089817354704788e-01 -2.2572487526510775e-02
      2.0911819888319536e-01 2.9804308071296004e-01
      3.5613454026229230e-01 1.5269415057323088e-01
      3.5586905063172469e-02 -6.7109856866008916e-03
      -1.0696377550488283e-01 7.9870633207560441e-03
      6.9198628741668752e-02 -6.7803595602233160e-02
      -2.0167799433194303e-01 -5.4960110016737111e-02
      -2.5129262078280368e-01 1.6481450292885019e-01
      -2.1527317319560282e-01 -3.3770537200764186e-02
      -1.1203274223456203e-01 -1.5539364187808399e-01
      4.4041571728769671e-02 1.1172062253566432e-01
      5.0571150837823797e-01 2.1262145100096314e-01
      -2.1540236350514530e-01 1.1098657626676030e-01
      1.8496450346394566e-01 -4.7355476657438993e-02
      -2.5413969291072169e-01 1.8280925634676251e-01
      -5.2266989806070058e-02 -1.1469146311457255e-01
      2.1764167736332429e-01 -7.5514775642182771e-02
      2.5134143921031846e-02 -3.1855396523949508e-01
      2.9915421076619196e-03 -5.5869528409770913e-02
      -1.6219028753901582e-01 2.1417100259580713e-01
      -1.7356296872034324e-01 -4.5570834974532459e-02
      -1.9617203614413464e-01 5.3231055013128706e-02
      -1.6494429092404128e-01 -1.1869762206458431e-01
      -9.8896549333114689e-02 1.1426785220176672e-01
      -4.4427636136912980e-02 1.9321555020249540e-01
      1.0135550717503080e-02 1.6673556527515157e-01
      -2.8015013671766748e-01 -4.1127740290995175e-02
      -6.5456460523674279e-02 4.4046749198826410e-02
      -2.9409325386854213e-01 1.0991325177054317e-02
      -1.2442917645087400e-02 1.5594733869417704e-01
      -2.3433879984903427e-02 1.3467895736814081e-01
      1.8775241943365842e-01 -2.8298224881057621e-01
      -2.2817732486143047e-01 -9.0464613773182295e-02
      -6.7455339813616089e-01 -2.4898966132645206e-01
      1.0720957727141159e-01 -6.8958311100654868e-02
      1.2879060411411319e-01 1.2694843930883798e-01
      4.0172914439122881e-02 -7.7112399531571507e-02
      -1.8862838122700173e-01 1.7977679291204716e-02
      2.4428240100086029e-01 2.4837474332034482e-01
      2.5315844602465006e-02 6.2939740022363064e-02
      9.0844578689737499e-02 3.9150672304610994e-02
      3.1335358881053377e-02 -1.6451499138905576e-01
      -5.3385419850007096e-02 -2.6308836978629229e-03
      3.1348751771916761e-01 1.7198779473387882e-01
      -1.3470155298578765e-01 4.1874307016964332e-02
      9.1901130691125654e-02 -3.6615756016964617e-02
      -5.4116383142918847e-02 1.0217925729656295e-01
      1.7809258780372983e-02 -1.8374232786482877e-01
      -2.0371127593907640e-01 -1.1867096607387594e-01
      2.6808584273714030e-02 2.1370777687491635e-01
      2.3518124543051666e-01 1.8342873664735637e-01
      -1.1073499755743040e-01 2.4180181472922488e-01
      -1.4461575849268368e-01 9.8065304877484383e-02
      -3.0148412677566145e-02 -4.5856978677716098e-01
      -2.0618112387310331e-01 -2.0115514891946637e-01
      2.6189718465845674e-01 -2.6357247078744983e-01
      1.7259594692251498e-01 -5.6126890552218721e-02
      4.4116721425009518e-02 3.6731781238765457e-02
      1.0281601194658963e-03 -4.6064882593438744e-02
      -6.1962165066628459e-02 1.9888718911041484e-01
      4.2624339083869450e-02 2.7838086116064753e-01
      8.8114606663752287e-02 -1.2618389479113792e-01
      5.3829686890838210e-02 -1.7949718881047683e-01
      1.3589050584605463e-02 2.5561399125165341e-01
      -1.0293242496216971e-01 -9.5978670521785076e-03
      -8.7886417111643203e-02 -6.4838203940065842e-02
      6.0337026094489828e-02 -1.1846382378058715e-01
      -2.6275384739457223e-02 2.4841401673901786e-01
      -8.4998142653427769e-02 2.2555608082399947e-01
      -4.8734697511521811e-02 -1.3444341734627904e-01
      -1.3628731340362454e-01 -1.3446703275432445e-01
      3.6807032465112904e-01 1.1915905810382030e-01
      1.1764136849696023e-01 -1.7979595065880916e-01
      -1.5705798593248853e-02 -1.2469828280569842e-01
      1.5576426736816879e-01 1.8888471739401239e-02
      2.5748338272356974e-01 -1.4451068449737242e-01
      3.4135554062508795e-02 1.0886566592396874e-01
      1.1366986544615057e-01 6.2034874548004715e-02
      -4.0947996329643271e-01 -2.6618530761307879e-02
      1.7949767852578505e-01 -2.2226579997962179e-01
      -1.8425560515995607e-01 -2.0497115382440037e-01
      9.9205133456569936e-02 6.9584983150852778e-03
      1.1049850146872346e-01 -1.8302474818869119e-01
      1.6420448730723283e-01 -5.2626467956166788e-02
      1.6091968078828331e-01 -7.7675947844676810e-02
      4.7596434418454353e-01 -3.4071009563619636e-01
      -9.7446334976594398e-02 -6.6702000816014850e-02
      -2.7550064164070007e-02 8.2351444554493169e-02
      -4.2355099322219932e-02 -1.2934765629670346e-02
      -1.5800434541060698e-02 -1.3066053391988089e-01
      -1.9135267838606074e-01 4.0397656623282319e-02
      -2.2962158711207606e-01 2.1803751241623953e-02
      5.6570224148338927e-02 1.6139878141305380e-01
      -2.8853015088710611e-02 2.5801182129917644e-01
      -4.5033414165819338e-02 -7.1613348317056666e-02
      3.4189098296348769e-01 -8.2770774226820845e-02
      -4.6884667474478892e-01 4.9339584651628347e-02
      2.3633194586110398e-01 9.6147787828246012e-03
      -2.1661773848348900e-01 -2.6834180980280847e-01
      3.9934498758075122e-02 -1.2817556063831018e-01
      -1.4158515575688949e-01 -3.3801067128884710e-01
      -1.4535902599874542e-01 8.5017598028224603e-02
      -5.2411589458358811e-02 1.5781818729964747e-01
      -1.2584068339002170e-02 1.0948298605658413e-01
      -5.5359429383610152e-02 2.4927468307863865e-01
      2.6234391979210899e-02 -3.2510627504037361e-02
      -1.2380364874317856e-01 -2.2927081262493337e-01
      -1.7286783034855494e-02 -1.9568144228757670e-01
      -1.1009260028568811e-01 1.5089583885906954e-01
      2.2566257554837119e-01 8.7882823625245285e-02
      -6.4635905030258317e-02 2.1792538297873712e-01
      -1.1312185374812984e-01 4.5831718829242127e-02
      1.0813366923756010e-01 1.3883314604696989e-02
      -1.4754595787911595e-01 3.1825056431162674e-01
      7.2590744826739079e-02 -2.7972858852573577e-02
      -1.2395642140271658e-01 1.0578525740824574e-01
      -5.7659027327261171e-02 4.8292723417786905e-02
      1.6004215911462311e-01 -2.2372028666063276e-01
      -5.3149381021589337e-01 -8.0061528860346301e-03
      -1.0158778116548071e-01 -1.1395667034865029e-01
      1.8417190636195319e-01 -1.4178292878791482e-01
      1.7979029626443616e-01 1.6213062950035575e-02
      4.5893337907426938e-02 -4.2661859880297255e-02
      9.6877798440806032e-02 -1.3987607466994958e-01
      -1.2240064049820965e-01 -1.0595527365559469e-01
      1.7206569520308923e-01 -2.6861597303743483e-02
      1.2165353715705164e-01 -1.8332691032265251e-02
      -1.5409235012775205e-01 -1.8181055731700826e-01
      -1.7395272671223785e-01 1.2698531481649189e-01
      7.8141694584692389e-02 9.6772750797401802e-02
      1.7285029918007838e-01 -2.8294459142966599e-01
      -3.1147583776411070e-02 -4.0379175562641652e-02
      9.3028848183565271e-02 -1.1847030424825544e-01
      4.3642706329930440e-02 2.9003229150318815e-02
      1.9132678819802237e-01 7.8171681001060783e-02
      3.0465994270983263e-02 -1.3399317097871269e-01
      -1.8213193617782733e-01 -1.7036318388641414e-01
      8.6025228155715852e-02 1.7647237655623677e-01
      -1.0445922473710646e-01 -1.5066086364442455e-01
      -7.4622970997956353e-02 -2.7271188197601687e-02
      -3.6988757454220228e-02 -4.5848466573068188e-02
      7.5711259904515452e-02 -1.5208107205908619e-01
      2.5828721397842935e-01 5.7590121602552023e-02
      -1.5458793016632217e-02 -1.3585394477753152e-01
      -8.2037638244387812e-02 2.5575197120654342e-01
      -9.9758423239941413e-02 -8.7623763280290409e-02
      2.4219351771483441e-01 -8.5389524793740887e-02
      -1.5558215962328051e-01 -1.4019105829830331e-01
      1.7913939345928087e-01 1.0178773379056216e-01
      8.5776191211815747e-02 -1.8165934862635538e-01
      9.0800244938299121e-02 3.6418463641487819e-02
      2.2298058581521676e-01 1.1270213957038837e-01
      -2.5766872096457637e-02 -3.8823301659146645e-02
      1.5520247141625826e-01 -3.0308272758893851e-02
      -1.6766090130290007e-01 1.6006488466870732e-02
      7.9224734663242258e-02 -1.1236411433187354e-01
      -1.8839486573291314e-01 7.1632243672160686e-02
      -9.7543881764851154e-02 2.8073583330553962e-02
      -4.8409496002390512e-01 -2.6166381835296659e-01
      6.2004194039758202e-02 -3.1994306101653780e-01
      6.2994035950173971e-02 2.1224721681397013e-01
      4.4244780725901445e-01 9.8800538092748705e-02
      -1.4625956180475697e-01 9.3879546243413645e-02
      -1.2695753234839166e-02 1.1951461276287058e-01
      -1.9309550456687485e-01 7.6596659182583307e-02
      -3.5683320547329166e-02 -7.9642117803747831e-02
      1.0233468492502083e-01 5.2637617798496468e-02
      -2.3869919121066360e-01 -1.3045961398750164e-01
      4.9271755395003058e-02 1.0895181397609888e-01
      2.2186560274901554e-02 2.3039363103806368e-01
      -2.5134946604585092e-02 8.9301367360261272e-02
      7.6303223660485087e-02 1.4603853558628219e-01
      5.5392031578444516e-02 -7.6999320326341894e-02
      1.7322136885106179e-01 -8.0945134167506611e-03
      -2.0656268817982651e-01 -4.1302941736922123e-02
      -1.8960400081000264e-01 1.9184894699913346e-01
      7.4997668504047973e-02 -2.9216760926462015e-01
      1.4956107763252749e-01 -2.3169623724826868e-01
      -1.1568632027505335e-01 -5.6757779629701043e-02
      -2.4311199112022033e-01 1.3628783919561160e-01
      -1.7128113551927848e-01 1.5009742256494973e-01
      1.7255814279139584e-01 -1.7334626565369084e-02
      -4.7865599748238973e-02 5.6042281558944654e-02
      -6.1317124320500493e-01 3.2331048172606132e-02
      -7.6577785080645416e-02 1.2767983748945581e-02
      1.1060168131409594e-01 1.4417198682692009e-01
      8.0835749197694318e-02 1.3714285544822846e-01
      -6.6382818273124686e-02 2.6038179732000971e-01
      -8.4482011078901131e-02 7.7096237421199809e-02
      -1.0727392816859794e-02 1.8382261663777938e-01
      1.2933168266116779e-01 -1.9893334586187746e-02
      8.4282974198481131e-02 -3.2257900289858071e-01
      -3.6282450688289482e-02 1.6953285255052890e-02
      -8.2722961947105808e-02 2.6974637145876463e-02
      -5.9693671802183074e-02 -1.4017279988023320e-02
      -2.0561032836369528e-01 1.5001232356652408e-01
      2.3036483576713385e-02 -1.1105105316972762e-01
      -5.9616032044558974e-02 -1.1578802749936283e-01
      4.5625228000395909e-02 9.3666599435952388e-02
      -8.6558704182835344e-02 2.4747123916170760e-01
      -2.7868065315049323e-01 7.2022828645614545e-02
      -1.1978962527732605e-01 1.4806048158524437e-01
      -9.6061945459337536e-02 -4.0870013238521095e-02
      7.4409230286047604e-03 -4.5001876767843074e-01
      -4.5991033586007940e-01 -2.1819714362002687e-01
      -9.6289712446759976e-02 -1.4887536373684754e-01
      -1.0361441737057446e-01 -2.4680857136792464e-01
      7.0177213337193386e-02 -3.4733425634718353e-02
      5.4106587747647469e-02 4.0083076164001516e-02
      -1.1155313472935638e-01 7.8195604749139933e-03
      -6.7493778743434221e-02 2.5640678357390162e-01
      5.2190972352445200e-02 -1.2263911671168820e-01
      -1.6839822092459117e-01 9.1717538319032302e-02
      1.1443806022321440e-01 2.1424024689911009e-01
      3.6163576938710507e-01 -2.0537581543201694e-01
      -1.0826281877933083e-01 -1.1923546033430700e-01
      -4.2898872694379794e-02 -1.2104483402366559e-01
      2.2519664806305426e-01 -1.6469285670759820e-01
      -6.8734124592667199e-03 1.2280968302257807e-01
      1.2880129667410858e-01 8.0299995771054475e-04
      -1.8510398195486774e-01 5.2021908524627056e-02
      3.6329320783912106e-01 1.3535775506543507e-01
      1.0012907183308731e-01 2.7501405317395611e-01
      6.6634619903589029e-02 -1.8913079501996591e-01
      1.5195518916398060e-01 -7.1096942005410405e-02
      5.6630942078510618e-02 2.4616832691050902e-02
      1.8177819780328672e-01 1.2716877057860226e-01
      3.3809023478829831e-02 1.4239740439247939e-01
      -4.9962840134778037e-02 -7.9025626610916028e-02
      1.0158522474250851e-01 -3.0336764266102021e-02
      -1.6310625981008492e-01 -1.4626966830450866e-01
      1.7575539829239684e-01 2.3841556641563681e-02
      1.7309485670043726e-01 -1.7287444300663343e-01
      -7.3516956731226074e-02 5.1531883040669474e-03
      5.9533011083490860e-03 -1.2789778990829084e-01
      9.2732158663715181e-01 -1.2899284256152990e-01
      5.1008711577787053e-02 1.9894040546878086e-01
      -2.0131675013463110e-01 1.0191277415752450e-01
      -1.2039419027150572e-01 -1.0453416230926002e-01
      -2.0157807326824739e-01 -1.3724969743687052e-01
      -2.1052020964843529e-01 5.2536167498651552e-02
      -2.1808143980994694e-02 -4.6691914711389844e-02
      -3.1990783970633804e-02 5.2514743504581296e-02
      3.0568964007332659e-03 1.1623503771416288e-01
      1.4650538535533414e-01 -5.2310723141577156e-02
      1.6942971107987859e-01 1.1159842570920621e-01
      -7.3503774687285639e-01 2.2272363663581218e-02
      1.0382657375272814e-01 1.6701957856416103e-01
      -2.0435740310971059e-01 4.0716395294189378e-01
      -1.6063528208443764e-01 -1.7205549649674856e-01
      8.3283070794995917e-02 -1.0642163009906649e-01
      1.5122344314190578e-01 1.4692737448850832e-01
      -3.1996217659144476e-02 1.3243670225571882e-01
      -1.4398942211386201e-01 -5.7794511160513366e-02
      1.2934191629022163e-01 9.5566947521198195e-02
      -1.4684737905888606e-01 1.1547123467149545e-01
      -1.2838707281838116e-01 -2.0134500490011351e-01
      -1.3282676312706776e-01 -1.7503619691339797e-01
      -2.2842467315934584e-01 2.5781780804051035e-01
      2.9773345352485436e-01 1.5997896789662841e-01
      -3.6467586710104381e-02 1.6070474508118929e-01
      -2.0386175774084481e-01 -1.0660344657829676e-01
      -3.5134419493995248e-02 1.4623897413548031e-02
      -4.5295957843806439e-02 3.9115418455814394e-01
      -1.5543314593952415e-01 -4.6407185938546348e-02
      -1.3727156174923630e-02 2.2641335911200849e-01
      1.9517498067788214e-01 2.6256390392515826e-02
      1.8938164999497603e-01 -1.9598015148384856e-01
      -6.4371428453181634e-01 -7.6884413241938374e-03
      -1.8723935840644382e-01 1.4809474535377093e-01
      3.2932597616277884e-02 3.0979850339550596e-01
      -1.2572089058016817e-01 2.4236697751530292e-01
      1.3219740556165926e-01 -2.6084551843709787e-02
      1.8110983259012381e-01 1.5683756034874222e-01
      4.1467303736701383e-01 4.0376300393199831e-02
      1.6354008410312860e-02 2.8402514383184573e-03
      2.4784039160888510e-01 -2.3991214603593727e-02
      2.6672011434854856e-02 3.5596311042640050e-02
      -9.1646227260639646e-02 2.4929741817621944e-02
      8.4341751800084921e-02 1.6710813165776917e-01
      1.8662221853674071e-01 -1.1966965467624857e-01
      1.4536090076237923e-01 -1.9460737663550326e-01
      4.6712134529252491e-02 -1.3081046530449836e-01
      2.6691813285234767e-01 9.5921386320256735e-02
      1.4965209026911944e-01 9.6452424321469110e-02
      -1.3026925585483165e-01 1.3874986309215195e-01
      2.7267651386921152e-02 -1.7515250385465989e-01
      2.2780610516320288e-01 1.5702839857964493e-01
      -2.2419937747807628e-01 -2.5606037991453962e-02
      -1.2809114025267851e-01 4.7442150941609425e-02
      3.7582947110067932e-02 -1.0520106963705911e-01
      2.0232883451311010e-01 -9.4988482948361402e-02
      4.9832406264854934e-01 7.3220997273478944e-02
      1.3122070421915710e-01 6.1624128259558437e-02
      -2.7586990375209347e-01 -9.3189956309455049e-02
      -4.0127191935425924e-02 -9.2697735029420386e-02
      4.9805142131757144e-02 -2.1163430451192795e-02
      1.8521861925729555e-01 -1.3939174046361338e-01
      -7.3886893931420172e-02 -3.3030458816781301e-02
      7.4383577880932805e-02 -3.5375776765358746e-02
      6.4857998019656249e-02 -1.2847430462117973e-01
      5.5432177963037586e-02 7.2735971281962408e-02
      6.7235268483432697e-02 6.3857963978593002e-02
      1.2403060858827175e-02 -1.4052354485300986e-01
      -9.9306298047091332e-02 -7.9208391958606461e-02
      -8.7711923300963432e-02 -2.4962998239222010e-02
      -1.4473501149776680e-01 4.0281108615982650e-02
      3.2569216556728703e-02 -9.4137860223068845e-02
      -1.4034642424373897e-01 -1.0236467366291650e-01
      1.3589431133173127e-01 -2.6630332457560918e-01
      2.8278669392389671e-01 1.8706601460357544e-02
      -3.4966673656270826e-02 1.6597861586732540e-01
      1.2817337211834967e-01 -3.2967170675090661e-02
      1.7572447719338199e-01 4.1611857320196073e-02
      -1.0862282938777307e-01 1.2376349040748456e-01
      1.5398970670146078e-01 1.8217875513534076e-01
      -1.5963855812284083e-01 -2.0632705979635702e-01
      -3.4192422286216523e-02 -3.0650373678673525e-02
      -3.5921466851215459e-03 -1.8399785586931474e-02
      5.3407517855449067e-02 6.5035790701136520e-02
      -2.0408218157853353e-01 -6.6567350892453650e-02
      -1.8266493286363097e-01 1.7262007447007507e-01
      -6.6282039259552394e-02 -9.0887523472789000e-02
      5.2298970971925178e-03 -6.0361296450835614e-02
      -1.0554485697077946e-01 -5.9846127162250457e-03
      -1.5562272893260676e-01 -4.5306271430686607e-02
      -2.1744961197965693e-01 2.5734247196486513e-02
      1.9284525751600767e-01 5.2933774763353106e-02
      -1.7053447414245920e-01 -2.5905843761351310e-01
      -8.7765232217152198e-02 1.9131708989226226e-01
      -4.7528179525168066e-02 2.2464994658592341e-01
      1.4765760772422123e-01 -2.0214718202996951e-01
      3.9047483678518090e-02 -1.4333316515761815e-01
      -3.9460466482199907e-01 -1.2181083464698708e-01
      -7.4436000561700383e-02 -3.5969892013370981e-02
      -2.5747016682297930e-01 1.4559295269401271e-01
      9.4674213754252445e-02 4.8329271859662931e-02
      6.3646547180825963e-02 1.5616053736942204e-01
      5.4818771559001833e-02 1.7255435271656069e-01
      -2.1093402944350534e-01 -5.7966705160671400e-02
      1.0886898085367189e-01 -4.1357628084947161e-02
      2.0629863943438959e-01 8.0646831760675192e-02
      -5.9663318314767212e-02 1.1762351363565721e-01
      -3.6044736236100647e-02 1.8018449385463078e-01
      -1.2615375576440496e-01 -1.0688066978124458e-01
      -2.0487297478328278e-02 1.2023953511895528e-01
      2.1908943345740994e-01 8.7614674067231751e-02
      -1.6378113526359322e-01 -8.7756821122746242e-02
      -2.3412163032243866e-01 2.2496270932271070e-01
      3.1164863108232348e-02 1.9493416594772187e-01
      -7.2008352247906726e-01 2.0129667678579230e-01
      3.8235483206004083e-02 1.8773824451189494e-01
      2.3152776375482707e-02 -9.3784888931447658e-04
      5.7597889126393756e-02 -4.3419520587572752e-01
      -4.3553676181134099e-01 -3.8177082159067337e-02
      -1.0371290043394639e-02 -3.0737836823677478e-02
      -2.2545770795944810e-03 -1.9632957117092850e-01
      -1.6781452090352650e-01 4.1836871738298594e-02
      5.9334638958177192e-02 -3.5081911231347893e-02
      7.9353036321801795e-02 2.4081658941156503e-01
      2.2550817385602692e-01 1.1159951940576492e-01
      -7.1994027682273323e-02 -2.1045334348269809e-01
      4.5724841607144268e-01 -2.4497724016137190e-01
      1.7163629345284631e-01 1.0697440582298171e-01
      2.6432127053229076e-01 -2.3541734018354779e-01
      -2.6552196989784749e-01 -1.0004938364983725e-01
      7.2668888204562465e-02 3.9733322331664501e-03
      1.6973205649562229e-01 -7.5373760277730406e-01
      -2.6646341895464237e-01 -4.4810542698755430e-02
      -5.1195804150444342e-02 -2.3329574399914510e-01
      -2.6287919414277261e-01 1.1135742061687545e-01
      3.8951485004596297e-02 5.0939321704436755e-02
      -4.5746736490867905e-02 2.6646347506529958e-02
      -1.8780454281210470e-02 -8.6364449177578878e-02
      2.3995011573432482e-02 3.4299411409478814e-01
      -8.4290675567469941e-02 -1.8115581723799745e-01
      -1.5196015254098404e-02 -5.2911067868213202e-01
      -1.4539375919500447e-01 1.9171434965169565e-01
      -1.2203262950506216e-01 -8.3511024012809770e-02
      7.4678095342491410e-02 -1.6620268538053595e-01
      -1.3741476916322110e-01 -3.7624430230392115e-02
      4.6701200504231148e-02 1.3989232745820185e-01
      -1.2234801687886979e-01 -1.6939725318288572e-02
      3.0689488042504993e-02 2.5098696695641148e-01
      -3.1742279855951620e-02 -1.2648120772277099e-01
      5.2713055747987958e-01 -4.5190529036324584e-01
      -1.1258727735527688e-01 1.8486077701822295e-01
      -1.7946525911783848e-01 -1.9230762873972081e-02
      -7.3615374199887645e-02 -1.0319457697180861e-02
      -1.3722007449707724e-01 8.1639964369971715e-02
      -2.6376445717999875e-01 1.0855524662242225e-01
      -4.1971274471793350e-02 2.6773530829833753e-01
      -7.1981580318089322e-02 2.3457800297550355e-01
      1.8669529327769235e-01 9.9988466232057371e-02
      9.4938865811291670e-02 5.3671107927467723e-02
      -9.9664539142222008e-02 2.1846079155404349e-01
      -9.1484918118228717e-02 2.7401966308646020e-01
      1.7689134877239449e-01 -8.4705057226903205e-02
      4.1167974153988790e-02 8.9347562718855938e-02
      -5.4958342341772638e-02 -1.2851914972003711e-01
      -1.0964463355593609e-01 -2.5959814680017956e-01
      1.7809263396555480e-01 1.8439348907002245e-01
      1.8729156496475841e-01 -3.8740695333991770e-02
      -2.4151749284640184e-01 -1.4254867221017470e-01
      3.8559987147329271e-02 3.5211309863680518e-01
      4.3997797625153455e-02 -4.1206402445946116e-02
      -1.6517239572334005e-01 -9.9585774952082300e-03
      -3.9541262199743611e-02 -2.1382616119012984e-01
      -9.7529794328315086e-02 2.1940750259833303e-01
      2.2740259583093437e-02 2.3968596897634986e-01
      4.7019949638027705e-02 8.3622652371215217e-02
      -9.9871057514207773e-02 1.2534326343420504e-01
      -1.9744952798421525e-01 6.7491573519878750e-02
      -7.5677907454932108e-02 4.4302328081108883e-01
      -1.2201309442343004e-01 6.4195296890849379e-02
      1.2439177506248757e-01 3.2586757681323804e-02
      1.4224328607351044e-01 5.6088819497753399e-02
      -5.2969156865136424e-02 -1.1763229560128885e-01
      -1.5251681088329674e-01 -2.0725821565067377e-02
      -3.1785979161244433e-02 2.8988689504094091e-02
      2.4260179278593505e-01 -1.5735355489431380e-01
      -7.1340121285347904e-02 6.1547745769753047e-02
      5.3826606310710623e-02 -1.6593529539384397e-02
      5.6015572195454201e-02 5.8050437046521734e-02
      -4.4792822671065845e-02 1.4077927969783000e-01
      2.0117607719737698e-01 -3.9915939278778387e-02
      8.5784516405271793e-02 -9.9215416680715096e-02
      -3.3287303744082966e-02 -2.2236249637743688e-01
      -1.7663761323157950e-01 9.0468632241430771e-02
      -2.2394575671802253e-01 6.9192036442034963e-02
      2.0557562029947440e-01 -2.7901899632520177e-01
      8.9039132362941836e-02 8.8396144512213351e-02
      1.7207117847904943e-01 -1.8609928171108925e-01
      1.8959874647687355e-01 1.6744892333977418e-01
      3.2067151174635988e-01 2.0105228188152680e-01
      -3.7474883263806680e-01 -5.8286117613775189e-02
      -1.4106208540306830e-01 5.7890497100392194e-03
      -2.5623801043971502e-02 6.4675283273393364e-02
      3.4721450797012721e-02 -1.0293368467809459e-01
      -1.0638024419165601e-01 -3.6682663959883823e-02
      -1.6624695146466881e-01 -1.2525495831313371e-01
      1.4862618744878031e-01 -3.5753750098236059e-02
      3.4903297717860793e-01 3.2517457522366226e-02
      9.4901612255518158e-02 5.3594071961649614e-02
      -7.9268632297644040e-02 1.1985719728996075e-01
      4.4101539280872203e-02 1.5470061713917644e-02
      4.9966262029725567e-02 4.7682293834965181e-02
      6.9311919532308530e-02 -5.5010903839914686e-02
      3.4506505046065693e-02 -6.6450007759531375e-03
      -2.4926702827819738e-03 -2.7025230150277402e-02
      -6.2987912180720335e-02 4.7879853534120095e-02
      -7.5124451452659474e-02 1.6386352917872829e-01
      1.7310222374487036e-01 6.9168015204828487e-02
      -6.2738139331254675e-02 5.2490933768208244e-02
      -4.3152465033171800e-02 2.3133055020562968e-01
      -8.1365623979731239e-02 -1.4528774010282447e-01
      -4.8941055016688551e-02 -1.1701708196376523e-01
      -1.9183317530242289e-01 -5.8906784217463155e-02
      -9.4491951091240245e-01 -6.4998293971957860e-02
      -2.2083426202536197e-01 -2.4894383054136002e-01
      -1.2258447849789279e-01 -7.9689865428088910e-02
      2.3734368935384698e-01 1.2665141117138481e-01
      -6.4769039663498215e-02 7.0957291868822020e-02
      1.9971875360444546e-02 2.5491643227520827e-01
      -1.8407142867689658e-01 2.1380173896087967e-01
      -3.5691914488539284e-02 -9.2121728565436323e-02
      -4.9109752663338654e-02 -1.1430235924532866e-02
      -4.8443394039868241e-02 3.8265357333871763e-02
      -7.0157741408539656e-02 9.0229912323633643e-02
      2.5627539691740777e-02 1.9242495039631352e-01
      -1.7667302164632026e-01 -1.5569697566406335e-02
      -2.1601134729485755e-01 6.2769726869997031e-02
      -2.8153102519042811e-01 3.7600206002727093e-02
      1.3617024067682765e-01 -1.2855880391449315e-01
      5.4713984034474736e-02 -8.3441370884355090e-02
      -2.0793491271973427e-01 2.5056298023783397e-01
      -1.3172410284550479e-01 -1.8262870503191986e-01
      1.2533776088959608e-01 -1.5345405049122895e-01
      -2.7974721107506240e-01 -1.6564910472671202e-01
      -2.4941330681243182e-01 1.3191327558792998e-01
      -1.6897909874212727e-01 -1.6277372624420337e-02
      -1.8902917197497243e-02 -1.0990325939831451e-01
      -1.7531202643666990e-01 1.0633557912278269e-01
      -1.3821513882748990e-01 -9.8900493859954142e-02
      6.6682058396062865e-02 -4.2011538788956804e-02
      -7.6116080678808207e-02 1.5693448831421766e-01
      -7.7913677360386235e-02 -9.8817325861909236e-02
      -9.1947071295224572e-02 7.1837426271469357e-02
      2.2595541950750953e-01 2.1343878344979456e-01
      1.4479704479049113e-01 1.2612693932642247e-01
      1.0914370167166670e-01 -3.3039950449736764e-03
      1.8359749337556096e-02 -1.9772873609994449e-01
      6.2925955273192086e-02 -4.7112877317449522e-02
      3.2381354891167619e-01 -8.0392308073849547e-02
      9.6493329746796808e-03 1.7063197637910874e-01
      -5.4247380542105483e-02 2.7579683187913151e-02
      -5.4768538186465279e-02 -4.6947193503692274e-02
      -4.3072115795371756e-02 -8.0178155644642840e-02
      -1.3878299837103475e-02 -5.5360688590459950e-02
      -1.2421254492312254e-01 1.0154029105280273e-01
      -2.2240804483200125e-02 2.4375377013705143e-01
      -1.7985218598121430e-01 1.2759446609743424e-01
      -1.6734362471041045e-01 1.5631335102889107e-01
      -4.7258283976076253e-02 -3.1184826010502525e-01
      2.2164237689790803e-01 -1.7427085203919168e-01
      -3.5340989420142618e-02 -8.2786016372969326e-02
      1.0239854603615756e-02 -2.6255733163807238e-01
      -1.0801145350725881e-01 2.6450149664903402e-02
      1.1975747701715451e-01 3.7022040073707990e-02
      1.9822057174696586e-01 1.2879619647309618e-01
      2.2984397087282216e-01 2.3623120832495453e-01
      2.6973415704940895e-01 -1.7674058664914230e-01
      6.2876213354006416e-01 -4.5691153628925169e-01
      6.6021713792211278e-02 1.4889125178483054e-01
      3.4125229239707033e-01 -1.9694103227827284e-01
      -1.6325409165230964e-01 -3.3561675297902627e-01
      1.8562961798368801e-02 -6.0328927244618906e-02
      3.7501911584523283e-02 -3.3144936446491419e-01
      -1.8181308320814693e-01 -7.6497832183546291e-02
      1.7446195741448062e-01 -4.5578396038884091e-02
      -2.4334330476188407e-01 -8.9152793130792149e-02
      4.5702467157463195e-01 4.3170203983300584e-02
      1.7725541611749298e-02 1.8289895288279817e-01
      1.7420996862389604e-01 -9.7645083597222848e-02
      8.0374653248697220e-02 1.0966436872754397e-01
      -1.4403228865383413e-01 3.9735424230736102e-02
      1.4894291683614094e-01 2.5316872664397022e-01
      3.8118918344678870e-02 2.3135409167908180e-01
      -1.0930263879677274e-01 4.7658087820719369e-02
      -2.4661243164379589e-02 -1.3629361705992110e-01
      -2.5894746333725199e-01 -2.2645288589152773e-01
      8.6090511721229224e-02 -1.2218945819216094e-01
      3.5602934874405232e-02 -7.9355550478169612e-02
      1.3865309467407747e-01 1.6960665571937356e-01
      1.2425716206612773e-01 -1.0567191474190823e-01
      2.6737874109939504e-02 -2.3686291512645150e-01
      6.7657585252690985e-02 1.9696247445886403e-01
      -8.8019130361556286e-02 -8.9189694043869519e-02
      3.9124044800243743e-02 5.4457054375959643e-02
      -2.1573324310389927e-01 -1.4155725109195855e-01
      -1.3401088936971262e-01 -6.4095783190784753e-02
      -2.2264622296802197e-01 2.5996751236341442e-01
      1.4150133968846609e-01 1.0911071493165490e-01
      -4.5536479383062919e-02 5.2971769858727501e-02
      1.4756808453190159e-01 -2.2915782969118889e-01
      3.1643232105651627e-02 7.7957316272055349e-02
      1.2861866826587531e-01 -1.3530951897810048e-02
      3.0500272418276967e-02 5.0001710332756993e-02
      -2.8250530541856878e-01 1.8862783649917911e-01
      -1.3653168193329618e-01 -1.6300168773220489e-01
      1.0624644599028550e-01 -5.9824292927347245e-03
      1.1189995042470882e-01 -9.3879936471992509e-04
      8.7317809778600305e-02 3.5760332079275647e-02
      -5.8626045585095196e-02 -1.4603189299285371e-01
      6.2790026176397562e-02 4.8499691845006014e-02
      8.8139385094255215e-02 -6.6986619784722562e-02
      3.5810322081290820e-02 -1.3980974091486592e-01
      -6.2686257991357991e-02 1.2263662462186990e-02
      -1.9044794334828635e-01 3.4379230595700742e-02
      1.6710677807854515e-01 4.0651228745089175e-03
      -4.3197247418407169e-03 -9.3890785968051005e-02
      1.5069525811834572e-01 -2.3176654043699469e-02
      -1.0452837196940037e-01 -2.9852486485480462e-02
      -3.8896549673252248e-02 6.0829837685243182e-01
      6.5619732521771695e-02 1.7261518570746726e-01
      -2.3563445129930815e-02 -6.2734153316848562e-02
      2.4642238170762151e-01 -1.0097763956758803e-01
      1.2649829759731171e-01 -3.3473008670322699e-02
      1.5015718301397263e-01 -3.6113013075060346e-02
      1.1301976597221976e-01 -2.1838754006526048e-01
      9.0856488430665211e-02 6.3026048630064752e-02
      1.4814230067054565e-01 6.2483860775557142e-02
      -6.5457250576361384e-02 1.4424012041553066e-01
      3.4793227152969688e-02 -1.2850080418612642e-01
      5.8817307305837584e-03 2.0843578117909572e-01
      -3.7220771640094991e-02 3.8682526363956665e-02
      -9.5245518093116099e-02 -2.2665543925980236e-01
      -3.0881114738817158e-02 -8.5679830885856442e-02
      5.0261530294949550e-02 -8.7670857789780565e-02
      -1.9062891115051389e-01 -4.4266083282436246e-02
      1.2840578621381332e-01 -1.7127773856144049e-01
      -1.3023078442244382e-01 3.2180882181220144e-02
      8.4325993915742609e-02 3.9551235950093015e-02
      1.8579579300890506e-01 1.1926593047744286e-01
      1.0159033347068644e-01 1.6551786152098485e-01
      2.3781000985862819e-02 -1.4760268204465782e-01
      4.9585339200879229e-02 2.4448352743449208e-02
      -7.3233770106986493e-03 1.8093840925954952e-01
      -7.2074115384602636e-02 -4.5007878431933962e-03
      1.6788679578600585e-01 -1.4546424641935654e-01
